{"learner":{"attributes":{},"feature_names":["Fasting_Glucose","Alcohol_Use","Age","Family_History","BMI","Diastolic_BP","Systolic_BP","Physical_Activity","Gender","Income_Level","Smoking"],"feature_types":["float","int","float","int","float","float","float","int","int","int","int"],"gradient_booster":{"model":{"gbtree_model_param":{"num_parallel_tree":"1","num_trees":"100"},"iteration_indptr":[0,1,2,3,4,5,6,7,8,9,10,11,12,13,14,15,16,17,18,19,20,21,22,23,24,25,26,27,28,29,30,31,32,33,34,35,36,37,38,39,40,41,42,43,44,45,46,47,48,49,50,51,52,53,54,55,56,57,58,59,60,61,62,63,64,65,66,67,68,69,70,71,72,73,74,75,76,77,78,79,80,81,82,83,84,85,86,87,88,89,90,91,92,93,94,95,96,97,98,99,100],"tree_info":[0,0,0,0,0,0,0,0,0,0,0,0,0,0,0,0,0,0,0,0,0,0,0,0,0,0,0,0,0,0,0,0,0,0,0,0,0,0,0,0,0,0,0,0,0,0,0,0,0,0,0,0,0,0,0,0,0,0,0,0,0,0,0,0,0,0,0,0,0,0,0,0,0,0,0,0,0,0,0,0,0,0,0,0,0,0,0,0,0,0,0,0,0,0,0,0,0,0,0,0],"trees":[{"base_weights":[-1.1442259E-2,-5.484414E-1,1.3896775E0,-9.84923E-1,1.4221724E0,-1.1026632E-1,2.0711129E0,-1.3369163E0,-4.5584974E-1,-2.1942863E-1,1.8436822E0,-6.4954877E-1,6.1443865E-1,1.7422078E0,6.947633E-1,-1.470176E0,-8.787628E-1,-4.3313193E-1,9.769237E-2,-7.534149E-1,1.0182554E0,9.6311736E-1,6.064335E-1,-1.170411E0,3.4868926E-1,1.5344812E0,6.547885E-1,-4.7410884E-1,-1.1719425E0,-4.387386E-1,-2.0648594E-1,-9.133793E-1,1.1130319E0,-3.5349655E-1,1.3030095E-1,-3.1358607E-2,4.967486E-1,-8.772508E-4,4.8786926E-1,-4.258803E-1,-4.5366693E-1,-6.0457474E-1,4.3286744E-1,1.2933952E0,5.938909E-1,-4.584712E-1,-1.4212894E-1,-2.8497502E-1,2.1141873E-1,-3.9760622E-1,5.268393E-2,4.246037E-2,7.020112E-1,-7.12008E-2,1.5519252E-1,-2.4691464E-1,3.4260672E-1,-3.6156544E-1,1.569336E-1,-2.732621E-1,9.3296506E-2,2.6901296E-1,4.9114177E-1],"categories":[],"categories_nodes":[],"categories_segments":[],"categories_sizes":[],"default_left":[0,0,0,0,0,0,0,0,0,0,0,0,0,0,0,0,0,0,0,0,0,0,0,0,0,0,0,0,0,0,0,0,0,0,0,0,0,0,0,0,0,0,0,0,0,0,0,0,0,0,0,0,0,0,0,0,0,0,0,0,0,0,0],"id":0,"left_children":[1,3,5,7,9,11,13,15,17,19,21,23,-1,25,-1,27,29,-1,31,33,35,37,-1,39,41,43,-1,-1,45,-1,47,49,51,-1,53,-1,-1,55,-1,-1,57,59,-1,61,-1,-1,-1,-1,-1,-1,-1,-1,-1,-1,-1,-1,-1,-1,-1,-1,-1,-1,-1],"loss_changes":[3.1020184E2,2.5775208E2,1.1698923E2,4.4939346E1,3.8082893E1,4.3972813E1,2.2928772E0,7.643402E0,5.440589E1,8.710393E0,4.851837E0,1.6043137E1,0E0,8.81958E-2,0E0,1.8247528E0,1.3613848E1,0E0,6.726524E1,3.5221066E0,3.0706706E0,5.885868E0,0E0,2.9262333E0,1.2430443E1,5.4094696E-1,0E0,0E0,7.7476845E0,0E0,1.2622767E1,1.498567E1,3.858796E1,0E0,6.6532284E-1,0E0,0E0,5.4043007E0,0E0,0E0,5.495019E0,2.1415975E0,0E0,1.4814873E0,0E0,0E0,0E0,0E0,0E0,0E0,0E0,0E0,0E0,0E0,0E0,0E0,0E0,0E0,0E0,0E0,0E0,0E0,0E0],"parents":[2147483647,0,0,1,1,2,2,3,3,4,4,5,5,6,6,7,7,8,8,9,9,10,10,11,11,13,13,15,15,16,16,18,18,19,19,20,20,21,21,23,23,24,24,25,25,28,28,30,30,31,31,32,32,34,34,37,37,40,40,41,41,43,43],"right_children":[2,4,6,8,10,12,14,16,18,20,22,24,-1,26,-1,28,30,-1,32,34,36,38,-1,40,42,44,-1,-1,46,-1,48,50,52,-1,54,-1,-1,56,-1,-1,58,60,-1,62,-1,-1,-1,-1,-1,-1,-1,-1,-1,-1,-1,-1,-1,-1,-1,-1,-1,-1,-1],"split_conditions":[4E0,3E0,3E0,1E0,2E0,3E0,4E0,3E0,3E0,1E0,3E0,3E0,6.1443865E-1,4E0,6.947633E-1,1E0,3E0,-4.3313193E-1,3E0,1E0,3E0,3E0,6.064335E-1,1E0,3E0,3E0,6.547885E-1,-4.7410884E-1,3E0,-4.387386E-1,4E0,1E0,3E0,-3.5349655E-1,3E0,-3.1358607E-2,4.967486E-1,3E0,4.8786926E-1,-4.258803E-1,3E0,1E0,4.3286744E-1,3E0,5.938909E-1,-4.584712E-1,-1.4212894E-1,-2.8497502E-1,2.1141873E-1,-3.9760622E-1,5.268393E-2,4.246037E-2,7.020112E-1,-7.12008E-2,1.5519252E-1,-2.4691464E-1,3.4260672E-1,-3.6156544E-1,1.569336E-1,-2.732621E-1,9.3296506E-2,2.6901296E-1,4.9114177E-1],"split_indices":[4,0,2,3,2,0,2,5,2,1,2,7,0,6,0,1,6,0,6,3,4,6,0,1,6,5,0,0,7,0,2,1,7,0,4,0,0,7,0,0,6,1,0,7,0,0,0,0,0,0,0,0,0,0,0,0,0,0,0,0,0,0,0],"split_type":[0,0,0,0,0,0,0,0,0,0,0,0,0,0,0,0,0,0,0,0,0,0,0,0,0,0,0,0,0,0,0,0,0,0,0,0,0,0,0,0,0,0,0,0,0,0,0,0,0,0,0,0,0,0,0,0,0,0,0,0,0,0,0],"sum_hessian":[4.1027014E2,2.9703558E2,1.1323456E2,2.4358324E2,5.3452335E1,3.563489E1,7.759966E1,1.4535284E2,9.823039E1,1.1018683E1,4.2433655E1,2.907057E1,6.564322E0,3.657265E1,4.102701E1,1.1089015E2,3.4462692E1,3.4697132E1,6.353326E1,7.9709625E0,3.047721E0,8.205402E0,3.4228252E1,1.8989645E1,1.0080923E1,2.7898369E1,8.674283E0,7.783411E1,3.305605E1,1.7817446E1,1.6645245E1,3.188385E1,3.164941E1,5.1576815E0,2.8132808E0,1.4066404E0,1.6410805E0,3.7510412E0,4.4543614E0,1.3363084E1,5.6265616E0,5.6265616E0,4.4543614E0,2.0630726E1,7.2676425E0,2.1099607E1,1.1956444E1,9.143163E0,7.5020823E0,2.2975126E1,8.908723E0,1.8286325E1,1.3363084E1,1.6410805E0,1.1722003E0,2.3444006E0,1.4066404E0,3.047721E0,2.5788407E0,4.219921E0,1.4066404E0,1.1253123E1,9.377603E0],"tree_param":{"num_deleted":"0","num_feature":"11","num_nodes":"63","size_leaf_vector":"1"}},{"base_weights":[-2.7515719E-2,-4.4393948E-1,9.4941413E-1,-8.0400395E-1,9.6387917E-1,-9.543808E-2,1.3771056E0,-1.1965413E0,-4.263692E-1,-1.5437041E-1,1.224865E0,-5.2224636E-1,4.235492E-1,1.1529448E0,4.680738E-1,-4.0685484E-1,-9.4133323E-1,-3.740678E-1,-4.5372404E-2,-6.3895166E-1,7.7975965E-1,9.9121964E-1,4.7016293E-1,-9.7380716E-1,2.5639075E-1,8.3995026E-1,4.3641785E-1,-1.1896819E0,-3.673709E-1,-4.9086455E-1,1.0378394E0,-3.0612817E-1,5.3255685E-2,1.5579104E-2,3.9882192E-1,2.3803577E-1,3.42643E-1,-3.6045393E-1,-3.7279645E-1,-4.8011693E-1,1.0212169E0,4.669898E-1,4.4057387E-1,-4.0248296E-1,-1.570006E-1,-2.7023122E-1,1.8126895E-1,-3.2650286E-1,9.9837996E-2,1.3839161E-1,5.1827675E-1,1.7971314E-1,-1.5712003E-1,1.99578E-1,-2.6660573E-1,-3.106302E-1,1.1948744E-1,-2.4407516E-1,1.3397425E-1,1.1547535E-1,3.773061E-1,-2.9582756E-2,3.8507894E-1],"categories":[],"categories_nodes":[],"categories_segments":[],"categories_sizes":[],"default_left":[0,0,0,0,0,0,0,0,0,0,0,0,0,0,0,0,0,0,0,0,0,0,0,0,0,0,0,0,0,0,0,0,0,0,0,0,0,0,0,0,0,0,0,0,0,0,0,0,0,0,0,0,0,0,0,0,0,0,0,0,0,0,0],"id":1,"left_children":[1,3,5,7,9,11,13,15,17,19,21,23,-1,25,-1,-1,27,-1,29,31,33,35,-1,37,39,41,-1,43,45,47,49,-1,51,-1,-1,53,-1,-1,55,57,59,61,-1,-1,-1,-1,-1,-1,-1,-1,-1,-1,-1,-1,-1,-1,-1,-1,-1,-1,-1,-1,-1],"loss_changes":[1.5936336E2,1.3997757E2,5.2453194E1,3.1987183E1,1.6644917E1,2.3215702E1,1.6143646E0,3.0802765E0,3.535927E1,5.7298875E0,2.1121674E0,1.0080694E1,0E0,2.671112E0,0E0,0E0,5.894863E0,0E0,3.834371E1,2.2089489E0,1.6903865E0,3.1336594E0,0E0,2.0025463E0,6.717544E0,4.6123667E0,0E0,2.3915405E0,8.246801E0,2.8035816E1,8.416584E0,0E0,1.5259833E0,0E0,0E0,3.6066337E0,0E0,0E0,3.667062E0,2.3138618E0,3.8001728E-1,7.3546085E0,0E0,0E0,0E0,0E0,0E0,0E0,0E0,0E0,0E0,0E0,0E0,0E0,0E0,0E0,0E0,0E0,0E0,0E0,0E0,0E0,0E0],"parents":[2147483647,0,0,1,1,2,2,3,3,4,4,5,5,6,6,7,7,8,8,9,9,10,10,11,11,13,13,16,16,18,18,19,19,20,20,21,21,23,23,24,24,25,25,27,27,28,28,29,29,30,30,32,32,35,35,38,38,39,39,40,40,41,41],"right_children":[2,4,6,8,10,12,14,16,18,20,22,24,-1,26,-1,-1,28,-1,30,32,34,36,-1,38,40,42,-1,44,46,48,50,-1,52,-1,-1,54,-1,-1,56,58,60,62,-1,-1,-1,-1,-1,-1,-1,-1,-1,-1,-1,-1,-1,-1,-1,-1,-1,-1,-1,-1,-1],"split_conditions":[4E0,3E0,3E0,3E0,2E0,3E0,3E0,1E0,3E0,3E0,1E0,3E0,4.235492E-1,1E0,4.680738E-1,-4.0685484E-1,1E0,-3.740678E-1,1E0,1E0,1E0,3E0,4.7016293E-1,1E0,3E0,1E0,4.3641785E-1,3E0,3E0,1E0,1E0,-3.0612817E-1,2E0,1.5579104E-2,3.9882192E-1,3E0,3.42643E-1,-3.6045393E-1,3E0,3E0,1E0,3E0,4.4057387E-1,-4.0248296E-1,-1.570006E-1,-2.7023122E-1,1.8126895E-1,-3.2650286E-1,9.9837996E-2,1.3839161E-1,5.1827675E-1,1.7971314E-1,-1.5712003E-1,1.99578E-1,-2.6660573E-1,-3.106302E-1,1.1948744E-1,-2.4407516E-1,1.3397425E-1,1.1547535E-1,3.773061E-1,-2.9582756E-2,3.8507894E-1],"split_indices":[4,0,2,6,2,0,6,3,2,7,1,7,0,3,0,0,1,0,1,3,1,2,0,1,6,1,0,5,7,3,3,0,7,0,0,9,0,0,6,5,1,5,0,0,0,0,0,0,0,0,0,0,0,0,0,0,0,0,0,0,0,0,0],"split_type":[0,0,0,0,0,0,0,0,0,0,0,0,0,0,0,0,0,0,0,0,0,0,0,0,0,0,0,0,0,0,0,0,0,0,0,0,0,0,0,0,0,0,0,0,0,0,0,0,0,0,0,0,0,0,0,0,0,0,0,0,0,0,0],"sum_hessian":[3.8969644E2,2.7361258E2,1.1608386E2,2.182275E2,5.5385082E1,3.3941494E1,8.214237E1,1.05939156E2,1.1228834E2,1.0557543E1,4.482754E1,2.696065E1,6.9808426E0,4.0215126E1,4.1927242E1,6.2517986E1,4.342117E1,3.4885468E1,7.740287E1,7.159523E0,3.3980196E0,2.8958899E1,1.5868643E1,1.690573E1,1.0054921E1,2.1597958E1,1.8617168E1,2.955864E1,1.3862529E1,5.523375E1,2.2169123E1,4.3100753E0,2.8494475E0,1.9329423E0,1.4650773E0,5.264354E0,2.3694544E1,1.1535936E1,5.3697934E0,5.311927E0,4.742994E0,1.4649438E1,6.948519E0,2.3245298E1,6.3133416E0,8.996457E0,4.8660717E0,3.1825962E1,2.3407785E1,1.298461E1,9.184512E0,1.4446727E0,1.4047748E0,4.1139936E0,1.1503607E0,2.7036114E0,2.6661818E0,3.996037E0,1.31589E0,1.99705E0,2.7459438E0,9.174341E0,5.475097E0],"tree_param":{"num_deleted":"0","num_feature":"11","num_nodes":"63","size_leaf_vector":"1"}},{"base_weights":[-2.8993143E-2,-3.693721E-1,7.352956E-1,-6.743355E-1,7.274515E-1,-7.667276E-2,1.056927E0,-9.7750115E-1,-2.384461E-1,-1.09367035E-1,9.214926E-1,-4.2695904E-1,1.1131322E0,8.29537E-1,1.242623E0,-1.2006031E0,-3.3277208E-1,-1.0879613E0,1.5199296E-1,-5.253758E-1,7.387663E-1,1.0452006E0,4.4676575E-1,-7.262817E-1,4.96472E-1,3.8517922E-1,5.1275134E-1,6.2752783E-1,1.0846446E0,6.6715246E-1,3.9669433E-1,-3.9432937E-1,-9.388772E-1,-3.4606197E-1,4.4178803E-2,-3.6794823E-1,-6.3051033E-1,-6.1409307E-1,7.6233196E-1,-2.6943648E-1,1.2212274E-1,-1.6565762E-2,3.4557936E-1,8.670268E-1,3.90375E-1,-1.139182E-1,1.0227376E0,-3.1373417E-1,-1.0822947E-1,-2.8607208E-1,3.4664315E-1,-2.0132324E-2,2.567876E-1,7.885703E-1,-7.460983E-2,6.9900155E-1,4.250522E-1,1.3259588E-1,3.328988E-1,-3.526956E-1,-1.0433032E-1,-2.0155795E-1,3.08297E-1,-3.1176075E-1,3.7653483E-2,-3.3448964E-1,3.140023E-4,5.5436317E-2,4.269482E-1,-5.312812E-2,1.2521443E-1,1.787357E-1,3.5141182E-1,-1.6811796E-1,1.5746471E-1,3.6361116E-1,8.035963E-2,-1.8897186E-1,1.780059E-1,-2.5212273E-1,1.475421E-1,1.1400821E-1,3.4669042E-1,-1.252806E-1,1.5512425E-1,1.23851076E-1,3.063806E-1,2.0225371E-1,-1.6331142E-1],"categories":[],"categories_nodes":[],"categories_segments":[],"categories_sizes":[],"default_left":[0,0,0,0,0,0,0,0,0,0,0,0,0,0,0,0,0,0,0,0,0,0,0,0,0,0,0,0,0,0,0,0,0,0,0,0,0,0,0,0,0,0,0,0,0,0,0,0,0,0,0,0,0,0,0,0,0,0,0,0,0,0,0,0,0,0,0,0,0,0,0,0,0,0,0,0,0,0,0,0,0,0,0,0,0,0,0,0,0],"id":2,"left_children":[1,3,5,7,9,11,13,15,17,19,21,23,25,27,29,31,33,35,37,39,41,43,45,47,49,-1,51,53,55,57,-1,-1,59,-1,61,-1,63,65,67,-1,69,-1,-1,71,-1,73,75,-1,77,79,-1,-1,-1,81,83,85,-1,87,-1,-1,-1,-1,-1,-1,-1,-1,-1,-1,-1,-1,-1,-1,-1,-1,-1,-1,-1,-1,-1,-1,-1,-1,-1,-1,-1,-1,-1,-1,-1],"loss_changes":[9.2149666E1,8.244704E1,2.8588108E1,2.516986E1,8.834345E0,1.3771658E1,2.2735443E0,1.5862335E1,2.6759102E1,4.2756567E0,2.1033974E0,7.3728876E0,1.141758E-1,1.2872448E0,1.0012131E0,1.2567139E0,9.471122E0,8.3436966E-1,2.6562777E1,2.0348582E0,1.3894033E0,4.2168808E-1,3.6023512E0,3.7503443E0,3.8395534E0,0E0,7.208243E-1,2.7368517E0,9.956322E-1,1.5119328E0,0E0,0E0,3.6277046E0,0E0,1.6061989E1,0E0,2.5883183E0,7.7964993E0,1.1762299E1,0E0,4.091505E-1,0E0,0E0,1.2032566E0,0E0,2.1107595E0,4.5051146E-1,0E0,3.2223122E0,2.1002715E0,0E0,0E0,0E0,2.4628143E0,1.2980816E0,4.220128E-1,0E0,1.9480001E0,0E0,0E0,0E0,0E0,0E0,0E0,0E0,0E0,0E0,0E0,0E0,0E0,0E0,0E0,0E0,0E0,0E0,0E0,0E0,0E0,0E0,0E0,0E0,0E0,0E0,0E0,0E0,0E0,0E0,0E0,0E0],"parents":[2147483647,0,0,1,1,2,2,3,3,4,4,5,5,6,6,7,7,8,8,9,9,10,10,11,11,12,12,13,13,14,14,15,15,16,16,17,17,18,18,19,19,20,20,21,21,22,22,23,23,24,24,26,26,27,27,28,28,29,29,32,32,34,34,36,36,37,37,38,38,40,40,43,43,45,45,46,46,48,48,49,49,53,53,54,54,55,55,57,57],"right_children":[2,4,6,8,10,12,14,16,18,20,22,24,26,28,30,32,34,36,38,40,42,44,46,48,50,-1,52,54,56,58,-1,-1,60,-1,62,-1,64,66,68,-1,70,-1,-1,72,-1,74,76,-1,78,80,-1,-1,-1,82,84,86,-1,88,-1,-1,-1,-1,-1,-1,-1,-1,-1,-1,-1,-1,-1,-1,-1,-1,-1,-1,-1,-1,-1,-1,-1,-1,-1,-1,-1,-1,-1,-1,-1],"split_conditions":[4E0,3E0,3E0,3E0,2E0,3E0,4E0,3E0,3E0,1E0,3E0,3E0,2E0,2E0,2E0,1E0,3E0,3E0,3E0,1E0,3E0,1E0,2E0,1E0,3E0,3.8517922E-1,2E0,1E0,3E0,3E0,3.9669433E-1,-3.9432937E-1,4E0,-3.4606197E-1,1E0,-3.6794823E-1,1E0,1E0,1E0,-2.6943648E-1,3E0,-1.6565762E-2,3.4557936E-1,4E0,3.90375E-1,1E0,1E0,-3.1373417E-1,3E0,1E0,3.4664315E-1,-2.0132324E-2,2.567876E-1,3E0,3E0,3E0,4.250522E-1,2E0,3.328988E-1,-3.526956E-1,-1.0433032E-1,-2.0155795E-1,3.08297E-1,-3.1176075E-1,3.7653483E-2,-3.3448964E-1,3.140023E-4,5.5436317E-2,4.269482E-1,-5.312812E-2,1.2521443E-1,1.787357E-1,3.5141182E-1,-1.6811796E-1,1.5746471E-1,3.6361116E-1,8.035963E-2,-1.8897186E-1,1.780059E-1,-2.5212273E-1,1.475421E-1,1.1400821E-1,3.4669042E-1,-1.252806E-1,1.5512425E-1,1.23851076E-1,3.063806E-1,2.0225371E-1,-1.6331142E-1],"split_indices":[4,0,2,7,2,0,2,5,2,1,9,5,9,0,7,1,2,5,6,3,4,1,5,1,6,0,5,10,7,6,0,0,6,0,3,0,3,3,3,0,4,0,0,2,0,3,10,0,7,3,0,0,0,6,5,0,0,6,0,0,0,0,0,0,0,0,0,0,0,0,0,0,0,0,0,0,0,0,0,0,0,0,0,0,0,0,0,0,0],"split_type":[0,0,0,0,0,0,0,0,0,0,0,0,0,0,0,0,0,0,0,0,0,0,0,0,0,0,0,0,0,0,0,0,0,0,0,0,0,0,0,0,0,0,0,0,0,0,0,0,0,0,0,0,0,0,0,0,0,0,0,0,0,0,0,0,0,0,0,0,0,0,0,0,0,0,0,0,0,0,0,0,0,0,0,0,0,0,0,0,0],"sum_hessian":[3.5217642E2,2.4401852E2,1.0815789E2,1.9123288E2,5.278564E1,3.0903261E1,7.725463E1,1.1205494E2,7.917794E1,1.0018102E1,4.2767536E1,2.4369791E1,6.5334716E0,3.718623E1,4.00684E1,8.260733E1,2.944761E1,2.4369154E1,5.480879E1,6.976624E0,3.041478E0,3.297339E1,9.794149E0,1.8565447E1,5.804343E0,4.200089E0,2.3333826E0,2.2683758E1,1.4502472E1,6.013708E0,3.405469E1,5.4766495E1,2.7840837E1,8.619482E0,2.0828129E1,1.7414322E1,6.954833E0,2.430077E1,3.0508018E1,4.1820674E0,2.7945566E0,1.3375117E0,1.7039664E0,2.2029894E1,1.0943493E1,5.369443E0,4.424707E0,1.1782493E1,6.7829547E0,2.912162E0,2.892181E0,1.1666913E0,1.1666913E0,1.8351543E1,4.3322144E0,8.147872E0,6.3546E0,3.3121922E0,2.7015162E0,1.9172293E1,8.668544E0,1.22362E1,8.591929E0,4.271285E0,2.683548E0,1.2946583E1,1.1354188E1,1.6962732E1,1.3545285E1,1.5867475E0,1.207809E0,1.3212318E1,8.817576E0,3.2327373E0,2.1367056E0,3.0533886E0,1.3713182E0,3.9488595E0,2.8340955E0,1.6534705E0,1.2586915E0,9.648296E0,8.703247E0,2.9287148E0,1.4034996E0,5.523865E0,2.6240067E0,1.8423808E0,1.4698113E0],"tree_param":{"num_deleted":"0","num_feature":"11","num_nodes":"89","size_leaf_vector":"1"}},{"base_weights":[-2.302167E-2,-3.0984837E-1,6.038828E-1,-5.753163E-1,5.8585733E-1,-4.848912E-2,8.6313474E-1,-7.787279E-1,4.1902936E-3,1.2407193E-1,8.2756954E-1,-3.4500164E-1,9.525578E-1,7.3443323E-1,3.4685826E-1,-1.0714526E0,-4.0506768E-1,-8.6347115E-1,3.9898768E-1,-3.514987E-1,9.6082383E-1,6.137829E-1,9.999283E-1,-7.729702E-1,2.1880935E-1,3.304849E-1,4.4463933E-1,5.2111614E-1,9.8386854E-1,-3.6214843E-1,-7.8971666E-1,-7.1883714E-1,2.8920394E-1,-3.287224E-1,-3.17747E-1,-3.7865943E-1,9.035031E-1,-3.1289738E-1,1.8453443E-1,3.5365963E-1,5.694992E-2,-3.8190354E-2,6.7361E-1,3.3125505E-1,4.7196737E-1,-3.0361834E-1,-6.656956E-2,-3.5978287E-1,2.5741088E-1,-1.682544E-2,2.2636758E-1,2.955412E-1,3.159743E-1,6.656142E-1,3.8255832E-1,-3.4965143E-1,-7.6591976E-2,-3.5151774E-1,-4.2215258E-2,-3.1472403E-1,2.6621422E-1,-2.5788093E-1,1.0784687E-1,-2.7474192E-1,1.0030633E-1,1.4932139E-1,4.598949E-1,-9.93984E-2,2.874426E-1,6.2844604E-2,2.541923E-1,-4.8958145E-2,2.8033358E-1,-1.9003265E-1,1.918059E-1,-2.6515913E-1,5.933367E-2,1.8375173E-2,3.2232496E-1,1.0235172E-1,3.449159E-1],"categories":[],"categories_nodes":[],"categories_segments":[],"categories_sizes":[],"default_left":[0,0,0,0,0,0,0,0,0,0,0,0,0,0,0,0,0,0,0,0,0,0,0,0,0,0,0,0,0,0,0,0,0,0,0,0,0,0,0,0,0,0,0,0,0,0,0,0,0,0,0,0,0,0,0,0,0,0,0,0,0,0,0,0,0,0,0,0,0,0,0,0,0,0,0,0,0,0,0,0,0],"id":3,"left_children":[1,3,5,7,9,11,13,15,17,19,21,23,25,27,-1,29,31,33,35,37,39,41,43,45,47,-1,49,51,53,-1,55,57,59,-1,61,63,65,-1,67,-1,-1,-1,69,-1,71,-1,73,75,-1,-1,-1,77,-1,79,-1,-1,-1,-1,-1,-1,-1,-1,-1,-1,-1,-1,-1,-1,-1,-1,-1,-1,-1,-1,-1,-1,-1,-1,-1,-1,-1],"loss_changes":[5.679292E1,5.1851295E1,1.6812359E1,1.9762093E1,5.481077E0,8.979808E0,1.8292351E0,1.3137375E1,1.5603249E1,7.6455154E0,5.897484E-1,5.771901E0,3.455639E-2,2.258627E0,0E0,1.6834946E0,1.2431198E1,1.457593E0,1.2621597E1,4.804049E0,9.4000053E-1,8.4692097E-1,3.8667107E-1,2.199298E0,4.3027573E0,0E0,5.463951E-1,3.3138857E0,1.2728539E0,0E0,4.7857E0,1.0028564E1,1.5483458E1,0E0,2.3866148E0,5.2928643E0,4.1610374E0,0E0,3.4534745E0,0E0,0E0,0E0,1.1159711E0,0E0,1.4644557E0,0E0,2.191406E0,2.0370295E0,0E0,0E0,0E0,4.058278E0,0E0,1.6540008E0,0E0,0E0,0E0,0E0,0E0,0E0,0E0,0E0,0E0,0E0,0E0,0E0,0E0,0E0,0E0,0E0,0E0,0E0,0E0,0E0,0E0,0E0,0E0,0E0,0E0,0E0,0E0],"parents":[2147483647,0,0,1,1,2,2,3,3,4,4,5,5,6,6,7,7,8,8,9,9,10,10,11,11,12,12,13,13,15,15,16,16,17,17,18,18,19,19,20,20,21,21,22,22,23,23,24,24,26,26,27,27,28,28,30,30,31,31,32,32,34,34,35,35,36,36,38,38,42,42,44,44,46,46,47,47,51,51,53,53],"right_children":[2,4,6,8,10,12,14,16,18,20,22,24,26,28,-1,30,32,34,36,38,40,42,44,46,48,-1,50,52,54,-1,56,58,60,-1,62,64,66,-1,68,-1,-1,-1,70,-1,72,-1,74,76,-1,-1,-1,78,-1,80,-1,-1,-1,-1,-1,-1,-1,-1,-1,-1,-1,-1,-1,-1,-1,-1,-1,-1,-1,-1,-1,-1,-1,-1,-1,-1,-1],"split_conditions":[4E0,3E0,3E0,3E0,3E0,3E0,4E0,3E0,3E0,3E0,4E0,1E0,2E0,3E0,3.4685826E-1,1E0,1E0,1E0,3E0,2E0,1E0,2E0,1E0,3E0,3E0,3.304849E-1,2E0,3E0,4E0,-3.6214843E-1,1E0,1E0,3E0,-3.287224E-1,1E0,1E0,3E0,-3.1289738E-1,2E0,3.5365963E-1,5.694992E-2,-3.8190354E-2,2E0,3.3125505E-1,3E0,-3.0361834E-1,1E0,3E0,2.5741088E-1,-1.682544E-2,2.2636758E-1,3E0,3.159743E-1,2E0,3.8255832E-1,-3.4965143E-1,-7.6591976E-2,-3.5151774E-1,-4.2215258E-2,-3.1472403E-1,2.6621422E-1,-2.5788093E-1,1.0784687E-1,-2.7474192E-1,1.0030633E-1,1.4932139E-1,4.598949E-1,-9.93984E-2,2.874426E-1,6.2844604E-2,2.541923E-1,-4.8958145E-2,2.8033358E-1,-1.9003265E-1,1.918059E-1,-2.6515913E-1,5.933367E-2,1.8375173E-2,3.2232496E-1,1.0235172E-1,3.449159E-1],"split_indices":[4,0,2,5,2,0,6,7,2,7,2,3,9,7,0,1,1,1,6,9,10,4,10,5,6,0,5,5,2,0,3,3,2,0,3,3,7,0,5,0,0,0,6,0,5,0,1,7,0,0,0,0,0,0,0,0,0,0,0,0,0,0,0,0,0,0,0,0,0,0,0,0,0,0,0,0,0,0,0,0,0],"split_type":[0,0,0,0,0,0,0,0,0,0,0,0,0,0,0,0,0,0,0,0,0,0,0,0,0,0,0,0,0,0,0,0,0,0,0,0,0,0,0,0,0,0,0,0,0,0,0,0,0,0,0,0,0,0,0,0,0,0,0,0,0,0,0,0,0,0,0,0,0,0,0,0,0,0,0,0,0,0,0,0,0],"sum_hessian":[3.1380386E2,2.1564558E2,9.815826E1,1.6662053E2,4.9025055E1,2.8145908E1,7.001235E1,1.2307605E2,4.3544487E1,1.7364292E1,3.1660763E1,2.221973E1,5.926179E0,5.1084087E1,1.8928265E1,6.796497E1,5.5111076E1,1.3246037E1,3.029845E1,1.1441439E1,5.922854E0,1.6167875E1,1.5492887E1,1.2420672E1,9.799058E0,3.6779342E0,2.2482448E0,2.9200766E1,2.188332E1,4.365307E1,2.4311903E1,3.7932472E1,1.7178604E1,8.584466E0,4.661571E0,1.2020232E1,1.8278217E1,4.583229E0,6.8582096E0,4.204706E0,1.7181474E0,1.1234734E0,1.5044402E1,1.2026608E1,3.4662776E0,8.956516E0,3.4641562E0,5.3729367E0,4.4261208E0,1.1726596E0,1.075585E0,2.1599817E1,7.600949E0,1.2028141E1,9.855179E0,1.3581035E1,1.0730869E1,2.069421E1,1.7238264E1,5.073657E0,1.2104946E1,2.440028E0,2.221543E0,6.693379E0,5.3268533E0,1.2202896E1,6.0753217E0,4.4575233E0,2.4006863E0,4.6977687E0,1.0346634E1,1.7331388E0,1.7331388E0,1.9782497E0,1.4859066E0,2.467952E0,2.9049847E0,1.7434153E1,4.1656637E0,8.222359E0,3.8057823E0],"tree_param":{"num_deleted":"0","num_feature":"11","num_nodes":"81","size_leaf_vector":"1"}},{"base_weights":[-1.9529337E-2,-2.6253006E-1,5.0186664E-1,-4.9323386E-1,4.7486576E-1,-3.2490917E-2,7.1917367E-1,-8.9300025E-1,-1.7038174E-1,2.507281E-1,8.973154E-1,-2.8358003E-1,8.371826E-1,5.271284E-1,9.0083456E-1,-3.2646665E-1,-6.617193E-1,-9.1326493E-1,7.786243E-2,-2.2588529E-1,5.236564E-1,2.0457233E-1,1.0212636E0,-6.865001E-1,2.622381E-1,3.0748522E-1,3.8137412E-1,3.9829773E-1,2.587316E-1,4.3197092E-1,9.755701E-1,-9.4602674E-1,-1.463275E-1,-3.2212612E-1,-4.228018E-1,-2.7343553E-1,7.8719157E-1,-6.852637E-1,3.8878435E-1,2.8087696E-1,7.554294E-1,-2.5778404E-1,2.8668764E-1,6.462872E-1,3.600901E-1,-2.801535E-1,-1.7946777E-1,-2.6932827E-1,7.613976E-1,-4.790419E-2,2.1935406E-1,2.735152E-1,3.1177065E-1,1.7767478E-2,2.5548553E-1,4.5986158E-1,3.2262608E-1,-3.3370554E-1,-1.2843439E-1,-2.9578558E-1,8.950038E-2,-2.619946E-1,4.902069E-2,-2.4259254E-1,1.0515653E-1,1.3004257E-1,3.71105E-1,-2.7808022E-1,-3.8840823E-2,2.3996852E-1,-6.0914744E-2,-2.9615967E-2,2.3126717E-1,3.056053E-1,7.1639426E-2,2.7045348E-1,3.1495467E-2,-2.3501536E-1,1.049135E-1,-2.4444085E-1,4.514734E-2,2.791929E-1,8.5011855E-2,-7.847867E-3,1.6082086E-1,1.5305704E-1,-1.5524176E-1,2.7393624E-1,-1.1363913E-2],"categories":[],"categories_nodes":[],"categories_segments":[],"categories_sizes":[],"default_left":[0,0,0,0,0,0,0,0,0,0,0,0,0,0,0,0,0,0,0,0,0,0,0,0,0,0,0,0,0,0,0,0,0,0,0,0,0,0,0,0,0,0,0,0,0,0,0,0,0,0,0,0,0,0,0,0,0,0,0,0,0,0,0,0,0,0,0,0,0,0,0,0,0,0,0,0,0,0,0,0,0,0,0,0,0,0,0,0,0],"id":4,"left_children":[1,3,5,7,9,11,13,15,17,19,21,23,25,27,29,-1,31,33,35,37,39,41,43,45,47,-1,49,51,-1,53,55,57,59,-1,61,63,65,67,69,71,73,-1,-1,75,-1,-1,77,79,81,-1,-1,83,-1,85,-1,87,-1,-1,-1,-1,-1,-1,-1,-1,-1,-1,-1,-1,-1,-1,-1,-1,-1,-1,-1,-1,-1,-1,-1,-1,-1,-1,-1,-1,-1,-1,-1,-1,-1],"loss_changes":[3.577345E1,3.298871E1,1.0447557E1,1.8839214E1,4.16776E0,6.1135583E0,1.7530823E0,2.237564E0,1.5311159E1,4.2416444E0,1.1386299E0,4.936474E0,1.4673853E-1,1.1016445E0,6.791229E-1,0E0,4.6289606E0,1.1814518E0,1.5879667E1,3.7228184E0,9.389529E-1,3.7234297E0,1.01148605E-1,1.4275422E0,2.8342285E0,0E0,7.6504624E-1,1.7972851E0,0E0,1.0473627E0,8.5946846E-1,1.3142834E0,5.0542955E0,0E0,1.931128E0,1.4570813E1,2.8176594E0,8.6956215E-1,1.5914991E0,2.2306979E0,1.0996737E0,0E0,0E0,7.878251E-1,0E0,0E0,2.0023334E0,1.3906726E0,1.7085052E-1,0E0,0E0,1.8348789E0,0E0,1.3439845E0,0E0,1.3910125E0,0E0,0E0,0E0,0E0,0E0,0E0,0E0,0E0,0E0,0E0,0E0,0E0,0E0,0E0,0E0,0E0,0E0,0E0,0E0,0E0,0E0,0E0,0E0,0E0,0E0,0E0,0E0,0E0,0E0,0E0,0E0,0E0,0E0],"parents":[2147483647,0,0,1,1,2,2,3,3,4,4,5,5,6,6,7,7,8,8,9,9,10,10,11,11,12,12,13,13,14,14,16,16,17,17,18,18,19,19,20,20,21,21,22,22,23,23,24,24,26,26,27,27,29,29,30,30,31,31,32,32,34,34,35,35,36,36,37,37,38,38,39,39,40,40,43,43,46,46,47,47,48,48,51,51,53,53,55,55],"right_children":[2,4,6,8,10,12,14,16,18,20,22,24,26,28,30,-1,32,34,36,38,40,42,44,46,48,-1,50,52,-1,54,56,58,60,-1,62,64,66,68,70,72,74,-1,-1,76,-1,-1,78,80,82,-1,-1,84,-1,86,-1,88,-1,-1,-1,-1,-1,-1,-1,-1,-1,-1,-1,-1,-1,-1,-1,-1,-1,-1,-1,-1,-1,-1,-1,-1,-1,-1,-1,-1,-1,-1,-1,-1,-1],"split_conditions":[4E0,3E0,3E0,3E0,1E0,3E0,4E0,1E0,3E0,3E0,2E0,3E0,2E0,3E0,2E0,-3.2646665E-1,1E0,3E0,1E0,3E0,3E0,1E0,2E0,1E0,3E0,3.0748522E-1,2E0,3E0,2.587316E-1,3E0,2E0,3E0,3E0,-3.2212612E-1,3E0,3E0,1E0,3E0,1E0,1E0,1E0,-2.5778404E-1,2.8668764E-1,3E0,3.600901E-1,-2.801535E-1,3E0,1E0,2E0,-4.790419E-2,2.1935406E-1,3E0,3.1177065E-1,2E0,2.5548553E-1,1E0,3.2262608E-1,-3.3370554E-1,-1.2843439E-1,-2.9578558E-1,8.950038E-2,-2.619946E-1,4.902069E-2,-2.4259254E-1,1.0515653E-1,1.3004257E-1,3.71105E-1,-2.7808022E-1,-3.8840823E-2,2.3996852E-1,-6.0914744E-2,-2.9615967E-2,2.3126717E-1,3.056053E-1,7.1639426E-2,2.7045348E-1,3.1495467E-2,-2.3501536E-1,1.049135E-1,-2.4444085E-1,4.514734E-2,2.791929E-1,8.5011855E-2,-7.847867E-3,1.6082086E-1,1.5305704E-1,-1.5524176E-1,2.7393624E-1,-1.1363913E-2],"split_indices":[4,0,2,6,1,0,2,3,2,2,7,7,2,5,7,0,1,5,1,6,4,3,5,1,6,0,5,0,0,6,6,5,2,0,7,7,3,7,8,3,3,0,0,4,0,0,6,3,2,0,0,6,0,6,0,8,0,0,0,0,0,0,0,0,0,0,0,0,0,0,0,0,0,0,0,0,0,0,0,0,0,0,0,0,0,0,0,0,0],"split_type":[0,0,0,0,0,0,0,0,0,0,0,0,0,0,0,0,0,0,0,0,0,0,0,0,0,0,0,0,0,0,0,0,0,0,0,0,0,0,0,0,0,0,0,0,0,0,0,0,0,0,0,0,0,0,0,0,0,0,0,0,0,0,0,0,0,0,0,0,0,0,0,0,0,0,0,0,0,0,0,0,0,0,0,0,0,0,0,0,0],"sum_hessian":[2.8030865E2,1.9153754E2,8.87711E1,1.4614523E2,4.5392307E1,2.5909693E1,6.286141E1,6.450589E1,8.1639336E1,3.0698317E1,1.4693992E1,2.0627977E1,5.281715E0,3.245397E1,3.0407436E1,3.297057E1,3.1535322E1,1.9776943E1,6.1862396E1,1.1240847E1,1.945747E1,2.6323464E0,1.20616455E1,1.171919E1,8.908789E0,2.856393E0,2.425322E0,2.502636E1,7.4276114E0,5.112631E0,2.5294806E1,1.9785454E1,1.1749868E1,1.4004982E1,5.7719603E0,4.178348E1,2.0078913E1,6.3673253E0,4.8735213E0,1.0583373E1,8.874098E0,1.0296983E0,1.6026481E0,5.3876023E0,6.674043E0,7.310925E0,4.408264E0,4.5373244E0,4.371464E0,1.1657463E0,1.2595756E0,2.2142279E1,2.884082E0,3.0975773E0,2.0150537E0,5.012361E0,2.0282444E1,1.41072235E1,5.6782303E0,3.6467185E0,8.103149E0,2.9867685E0,2.7851918E0,2.2331985E1,1.9451498E1,1.23394985E1,7.739415E0,3.9723177E0,2.3950074E0,2.6683953E0,2.2051258E0,6.41355E0,4.1698227E0,5.2348456E0,3.639252E0,3.2090728E0,2.1785295E0,1.8344053E0,2.573859E0,1.5641592E0,2.9731653E0,2.5291605E0,1.8423035E0,1.0760642E1,1.1381636E1,1.6376941E0,1.4598833E0,2.1866229E0,2.8257382E0],"tree_param":{"num_deleted":"0","num_feature":"11","num_nodes":"89","size_leaf_vector":"1"}},{"base_weights":[-1.4369005E-2,-2.198446E-1,4.2154178E-1,-4.209435E-1,3.9557305E-1,-2.1298077E-2,6.02812E-1,-6.305982E-1,9.5801115E-2,1.2075842E-1,6.5865606E-1,-3.907506E-1,4.7846565E-1,4.1830572E-1,7.984535E-1,-9.4566596E-1,-2.844032E-1,-6.946842E-1,3.9483398E-1,-3.333716E-1,4.5014223E-1,8.262338E-2,8.283319E-1,-8.197706E-1,4.0418174E-2,7.851824E-2,2.4921876E-1,1.798856E-1,2.751443E-1,5.78209E-1,3.1080696E-1,-3.184794E-1,-6.1450326E-1,-7.076551E-1,1.9183567E-1,-2.9313993E-1,-1.5746395E-1,2.1275491E-3,8.578031E-1,-8.4488016E-1,4.3517283E-1,6.696226E-1,-9.9741325E-2,-1.784795E-1,5.6083757E-1,4.9970493E-1,3.1615028E-1,-2.706459E-1,-5.7136092E-2,-2.3156884E-1,2.2399892E-1,-1.4997458E-1,4.4547033E-1,-5.922063E-1,4.1020447E-1,7.4358135E-1,7.0298396E-2,-3.0549973E-1,-4.1338407E-2,-3.277157E-1,6.417181E-3,-2.7349356E-1,1.4725691E-1,-2.2170432E-1,1.2461928E-1,-1.3596621E-1,2.1270236E-1,9.234455E-2,3.590413E-1,-2.959706E-1,-8.024666E-2,1.3577351E-2,2.6585385E-1,2.3048253E-1,4.2381827E-2,6.0850795E-2,-1.5207048E-1,-1.9739678E-2,2.6085776E-1,6.3110916E-3,2.957882E-1,-2.1240254E-1,8.245534E-2,-6.347138E-2,2.617643E-1,-3.0651167E-1,1.9942185E-1,4.006856E-2,2.000171E-1,1.535253E-1,2.7842748E-1,1.6874352E-1,-7.7602275E-2],"categories":[],"categories_nodes":[],"categories_segments":[],"categories_sizes":[],"default_left":[0,0,0,0,0,0,0,0,0,0,0,0,0,0,0,0,0,0,0,0,0,0,0,0,0,0,0,0,0,0,0,0,0,0,0,0,0,0,0,0,0,0,0,0,0,0,0,0,0,0,0,0,0,0,0,0,0,0,0,0,0,0,0,0,0,0,0,0,0,0,0,0,0,0,0,0,0,0,0,0,0,0,0,0,0,0,0,0,0,0,0,0,0],"id":5,"left_children":[1,3,5,7,9,11,13,15,17,19,21,23,25,27,29,31,33,35,37,39,41,43,45,47,49,51,-1,53,-1,55,-1,-1,57,59,61,-1,63,65,67,69,71,73,75,-1,77,79,-1,-1,-1,81,-1,-1,83,85,87,89,91,-1,-1,-1,-1,-1,-1,-1,-1,-1,-1,-1,-1,-1,-1,-1,-1,-1,-1,-1,-1,-1,-1,-1,-1,-1,-1,-1,-1,-1,-1,-1,-1,-1,-1,-1,-1],"loss_changes":[2.26235E1,2.140596E1,6.5092926E0,1.4126474E1,3.013647E0,4.70532E0,1.7400494E0,9.81979E0,9.337457E0,3.4632618E0,2.046008E0,2.7376268E0,1.4635162E0,3.6017337E0,8.0254173E-1,1.1902428E0,9.307144E0,1.497901E0,5.171726E0,4.254037E0,1.6675439E0,2.2885296E0,7.035856E-1,2.1056032E-1,1.7566779E0,1.535697E0,0E0,4.2747674E0,0E0,1.3053493E0,0E0,0E0,2.712514E0,6.840144E0,7.771549E0,0E0,1.9537997E0,5.5996695E0,2.0660467E0,2.4950457E-1,7.706676E-1,3.923354E-1,6.7619216E-1,0E0,8.409486E-1,1.9942894E0,0E0,0E0,0E0,1.8149822E0,0E0,0E0,1.3950415E0,3.7124267E0,1.1921489E0,4.2148113E-2,9.671207E-1,0E0,0E0,0E0,0E0,0E0,0E0,0E0,0E0,0E0,0E0,0E0,0E0,0E0,0E0,0E0,0E0,0E0,0E0,0E0,0E0,0E0,0E0,0E0,0E0,0E0,0E0,0E0,0E0,0E0,0E0,0E0,0E0,0E0,0E0,0E0,0E0],"parents":[2147483647,0,0,1,1,2,2,3,3,4,4,5,5,6,6,7,7,8,8,9,9,10,10,11,11,12,12,13,13,14,14,15,15,16,16,17,17,18,18,19,19,20,20,21,21,22,22,23,23,24,24,25,25,27,27,29,29,32,32,33,33,34,34,36,36,37,37,38,38,39,39,40,40,41,41,42,42,44,44,45,45,49,49,52,52,53,53,54,54,55,55,56,56],"right_children":[2,4,6,8,10,12,14,16,18,20,22,24,26,28,30,32,34,36,38,40,42,44,46,48,50,52,-1,54,-1,56,-1,-1,58,60,62,-1,64,66,68,70,72,74,76,-1,78,80,-1,-1,-1,82,-1,-1,84,86,88,90,92,-1,-1,-1,-1,-1,-1,-1,-1,-1,-1,-1,-1,-1,-1,-1,-1,-1,-1,-1,-1,-1,-1,-1,-1,-1,-1,-1,-1,-1,-1,-1,-1,-1,-1,-1,-1],"split_conditions":[4E0,3E0,3E0,3E0,2E0,1E0,1E0,3E0,3E0,3E0,2E0,2E0,3E0,1E0,4E0,4E0,1E0,1E0,1E0,1E0,3E0,2E0,1E0,3E0,3E0,3E0,2.4921876E-1,2E0,2.751443E-1,1E0,3.1080696E-1,-3.184794E-1,1E0,1E0,3E0,-2.9313993E-1,1E0,3E0,3E0,3E0,3E0,1E0,3E0,-1.784795E-1,3E0,1E0,3.1615028E-1,-2.706459E-1,-5.7136092E-2,1E0,2.2399892E-1,-1.4997458E-1,2E0,3E0,1E0,3E0,3E0,-3.0549973E-1,-4.1338407E-2,-3.277157E-1,6.417181E-3,-2.7349356E-1,1.4725691E-1,-2.2170432E-1,1.2461928E-1,-1.3596621E-1,2.1270236E-1,9.234455E-2,3.590413E-1,-2.959706E-1,-8.024666E-2,1.3577351E-2,2.6585385E-1,2.3048253E-1,4.2381827E-2,6.0850795E-2,-1.5207048E-1,-1.9739678E-2,2.6085776E-1,6.3110916E-3,2.957882E-1,-2.1240254E-1,8.245534E-2,-6.347138E-2,2.617643E-1,-3.0651167E-1,1.9942185E-1,4.006856E-2,2.000171E-1,1.535253E-1,2.7842748E-1,1.6874352E-1,-7.7602275E-2],"split_indices":[4,0,2,5,5,1,3,7,2,2,7,5,7,1,2,6,3,1,3,3,9,9,8,0,0,6,0,6,0,10,0,0,1,1,2,0,3,7,6,7,7,10,4,0,4,1,0,0,0,3,0,0,2,5,8,6,6,0,0,0,0,0,0,0,0,0,0,0,0,0,0,0,0,0,0,0,0,0,0,0,0,0,0,0,0,0,0,0,0,0,0,0,0],"split_type":[0,0,0,0,0,0,0,0,0,0,0,0,0,0,0,0,0,0,0,0,0,0,0,0,0,0,0,0,0,0,0,0,0,0,0,0,0,0,0,0,0,0,0,0,0,0,0,0,0,0,0,0,0,0,0,0,0,0,0,0,0,0,0,0,0,0,0,0,0,0,0,0,0,0,0,0,0,0,0,0,0,0,0,0,0,0,0,0,0,0,0,0,0],"sum_hessian":[2.5054709E2,1.7061829E2,7.99288E1,1.2883508E2,4.17832E1,2.3471317E1,5.6457485E1,9.149373E1,3.7341354E1,2.1149544E1,2.0633654E1,1.3620461E1,9.850856E0,3.0670637E1,2.578685E1,4.699372E1,4.4500008E1,9.885692E0,2.7455662E1,8.886033E0,1.2263512E1,5.0332427E0,1.560041E1,6.3754797E0,7.2449822E0,5.185885E0,4.6649714E0,2.1672792E1,8.997845E0,1.5163249E1,1.0623601E1,3.3174477E1,1.3819244E1,2.3303429E1,2.1196579E1,5.9424973E0,3.9431949E0,1.5398617E1,1.2057046E1,5.2755437E0,3.6104894E0,8.609404E0,3.6541085E0,1.9815813E0,3.0516613E0,7.657304E0,7.9431067E0,5.2541313E0,1.1213484E0,5.7158303E0,1.5291519E0,1.8722606E0,3.3136241E0,4.6186314E0,1.7054161E1,1.1088805E1,4.0744433E0,6.8664055E0,6.9528394E0,1.4927525E1,8.375904E0,4.0824137E0,1.7114166E1,1.8128291E0,2.1303656E0,9.583863E0,5.814754E0,5.32534E0,6.7317057E0,3.6670146E0,1.6085291E0,2.5265365E0,1.0839528E0,6.872146E0,1.7372571E0,2.3841658E0,1.2699426E0,1.2668343E0,1.784827E0,4.3844924E0,3.2728117E0,2.739987E0,2.9758434E0,1.504152E0,1.8094722E0,3.5818596E0,1.0367715E0,8.936874E0,8.117287E0,6.5865746E0,4.502231E0,1.3479525E0,2.726491E0],"tree_param":{"num_deleted":"0","num_feature":"11","num_nodes":"93","size_leaf_vector":"1"}},{"base_weights":[-1.1983869E-2,-1.4765485E-1,4.5927224E-1,-6.6135585E-1,2.6766252E-2,2.8819466E-1,8.318891E-1,-9.2600787E-1,-2.2576827E-1,-1.8012033E-1,4.3039164E-1,1.0367527E-1,6.6478854E-1,3.0786073E-1,2.746547E-1,-3.0931118E-1,-6.1946E-1,-4.9148268E-1,4.494097E-1,-6.5020794E-1,1.3041617E-1,2.9415497E-1,2.5007662E-1,-1.1574381E-1,3.8016674E-1,1.6191292E-1,2.600347E-1,-1.0682913E-1,2.4623628E-1,-2.7388236E-1,-1.419941E-1,-8.251841E-1,-1.0201698E-1,-1.2190924E-1,7.9974014E-1,-9.0294224E-1,-2.2341904E-1,-2.5993544E-1,6.1080015E-1,1.3738705E-1,2.181263E-1,-4.4430658E-1,2.1754241E-1,1.3152193E-1,6.6626614E-1,1.3833506E-1,-4.768233E-2,-2.1568699E-1,1.14498995E-1,-2.9162964E-1,-1.1131773E-1,-1.3497019E-1,1.9928183E-1,7.136826E-2,3.6008772E-1,-3.153793E-1,-1.5692052E-1,-2.5279137E-1,8.7435655E-2,-2.1079902E-1,1.13749705E-1,8.889933E-2,3.0229038E-1,-5.4865398E-2,1.7350455E-1,-2.5084424E-1,7.318939E-2,-7.766178E-2,1.4910023E-1,-7.270505E-2,2.0545E-1,2.5407346E-2,2.954993E-1],"categories":[],"categories_nodes":[],"categories_segments":[],"categories_sizes":[],"default_left":[0,0,0,0,0,0,0,0,0,0,0,0,0,0,0,0,0,0,0,0,0,0,0,0,0,0,0,0,0,0,0,0,0,0,0,0,0,0,0,0,0,0,0,0,0,0,0,0,0,0,0,0,0,0,0,0,0,0,0,0,0,0,0,0,0,0,0,0,0,0,0,0,0],"id":6,"left_children":[1,3,5,7,9,11,13,15,17,19,21,23,25,27,-1,-1,29,31,33,35,37,39,-1,41,43,45,-1,-1,-1,-1,47,49,51,-1,53,55,57,59,61,63,-1,65,67,69,71,-1,-1,-1,-1,-1,-1,-1,-1,-1,-1,-1,-1,-1,-1,-1,-1,-1,-1,-1,-1,-1,-1,-1,-1,-1,-1,-1,-1],"loss_changes":[1.4555499E1,1.5850176E1,3.0047112E0,4.9586754E0,1.1173047E1,2.4612699E0,3.9673424E-1,2.4875069E-1,3.4976923E0,1.3011392E1,2.244358E0,1.5984553E0,1.0571537E0,1.5311376E0,0E0,0E0,1.20702E0,1.6813235E0,2.0280213E0,3.6159096E0,1.031436E1,2.304143E0,0E0,1.7449592E0,7.35446E-1,5.1566786E-1,0E0,0E0,0E0,0E0,1.7292771E0,1.1798668E-1,2.2740884E0,0E0,6.97345E-1,6.840763E-1,4.866055E0,8.919047E0,2.768485E0,3.9524803E0,0E0,2.336863E0,1.2129003E0,1.7042959E0,8.682442E-1,0E0,0E0,0E0,0E0,0E0,0E0,0E0,0E0,0E0,0E0,0E0,0E0,0E0,0E0,0E0,0E0,0E0,0E0,0E0,0E0,0E0,0E0,0E0,0E0,0E0,0E0,0E0,0E0],"parents":[2147483647,0,0,1,1,2,2,3,3,4,4,5,5,6,6,7,7,8,8,9,9,10,10,11,11,12,12,13,13,16,16,17,17,18,18,19,19,20,20,21,21,23,23,24,24,25,25,30,30,31,31,32,32,34,34,35,35,36,36,37,37,38,38,39,39,41,41,42,42,43,43,44,44],"right_children":[2,4,6,8,10,12,14,16,18,20,22,24,26,28,-1,-1,30,32,34,36,38,40,-1,42,44,46,-1,-1,-1,-1,48,50,52,-1,54,56,58,60,62,64,-1,66,68,70,72,-1,-1,-1,-1,-1,-1,-1,-1,-1,-1,-1,-1,-1,-1,-1,-1,-1,-1,-1,-1,-1,-1,-1,-1,-1,-1,-1,-1],"split_conditions":[3E0,3E0,1E0,4E0,4E0,4E0,2E0,3E0,3E0,3E0,3E0,1E0,3E0,1E0,2.746547E-1,-3.0931118E-1,1E0,1E0,2E0,1E0,1E0,4E0,2.5007662E-1,2E0,3E0,1E0,2.600347E-1,-1.0682913E-1,2.4623628E-1,-2.7388236E-1,3E0,3E0,4E0,-1.2190924E-1,1E0,3E0,1E0,1E0,3E0,3E0,2.181263E-1,3E0,3E0,3E0,2E0,1.3833506E-1,-4.768233E-2,-2.1568699E-1,1.14498995E-1,-2.9162964E-1,-1.1131773E-1,-1.3497019E-1,1.9928183E-1,7.136826E-2,3.6008772E-1,-3.153793E-1,-1.5692052E-1,-2.5279137E-1,8.7435655E-2,-2.1079902E-1,1.13749705E-1,8.889933E-2,3.0229038E-1,-5.4865398E-2,1.7350455E-1,-2.5084424E-1,7.318939E-2,-7.766178E-2,1.4910023E-1,-7.270505E-2,2.0545E-1,2.5407346E-2,2.954993E-1],"split_indices":[0,2,1,4,4,2,7,5,5,6,5,3,4,3,0,0,1,3,6,1,3,6,0,5,6,8,0,0,0,0,7,7,6,0,3,5,3,1,7,7,0,2,4,7,9,0,0,0,0,0,0,0,0,0,0,0,0,0,0,0,0,0,0,0,0,0,0,0,0,0,0,0,0],"split_type":[0,0,0,0,0,0,0,0,0,0,0,0,0,0,0,0,0,0,0,0,0,0,0,0,0,0,0,0,0,0,0,0,0,0,0,0,0,0,0,0,0,0,0,0,0,0,0,0,0,0,0,0,0,0,0,0,0,0,0,0,0,0,0,0,0,0,0,0,0,0,0,0,0],"sum_hessian":[2.2559746E2,1.7570114E2,4.989632E1,4.3828053E1,1.318731E2,3.5411472E1,1.4484845E1,2.65631E1,1.7264954E1,8.755083E1,4.4322258E1,2.4622505E1,1.078897E1,2.6376884E0,1.18471575E1,1.8024252E1,8.538848E0,1.2584448E1,4.680505E0,3.4393066E1,5.3157764E1,3.44212E1,9.901057E0,1.4052252E1,1.0570252E1,3.6080601E0,7.1809096E0,1.2828537E0,1.3548347E0,4.7234545E0,3.815393E0,6.1749105E0,6.4095373E0,1.3130621E0,3.3674428E0,2.0900576E1,1.3492492E1,2.9580261E1,2.3577501E1,2.623769E1,8.183509E0,6.908527E0,7.143725E0,6.436282E0,4.1339707E0,1.6408106E0,1.9672495E0,1.6378585E0,2.1775346E0,3.803755E0,2.3711557E0,4.6922245E0,1.7173128E0,2.0649283E0,1.3025146E0,1.3760411E1,7.140164E0,5.8365107E0,7.655981E0,1.7416077E1,1.2164186E1,1.4128326E1,9.449175E0,1.5537797E1,1.0699894E1,4.2653575E0,2.6431694E0,2.6683824E0,4.4753428E0,4.1763353E0,2.2599466E0,1.9116257E0,2.2223449E0],"tree_param":{"num_deleted":"0","num_feature":"11","num_nodes":"73","size_leaf_vector":"1"}},{"base_weights":[-1.0070589E-2,-1.6245432E-1,3.8257533E-1,-3.5191727E-1,1.8546969E-1,1.3724437E-1,7.35725E-1,-5.2645457E-1,9.637697E-2,6.01507E-2,8.0120677E-1,-6.5596625E-2,5.5089945E-1,4.5537147E-1,1.2166619E0,-8.4387445E-1,-1.9306959E-1,-1.2672718E-1,3.830795E-1,-2.2938268E-1,3.5524E-1,2.987023E-1,4.258808E-1,-2.566638E-1,4.5691654E-1,2.2658864E-1,9.0486616E-1,5.581394E-2,1.0779966E0,4.0575984E-1,9.2555806E-2,-3.1241736E-1,-5.7772416E-1,-5.735149E-1,2.0895526E-1,-5.290351E-1,1.5152884E-1,-1.2205682E-1,2.9518098E-1,-4.8991993E-1,2.5902683E-1,1.15991645E-1,2.9361996E-1,-2.7746009E-3,1.7841023E-1,-6.5513074E-1,1.0942953E-1,-1.2069115E-1,7.350863E-1,-5.8642834E-2,1.939222E-1,9.183015E-2,3.235169E-1,-2.7792364E-1,6.8067026E-1,4.9018312E-2,3.7286407E-1,-3.1346163E-1,-3.1138618E-2,-2.738352E-1,-1.03512086E-1,-7.923732E-2,2.806818E-1,-2.5550777E-1,3.0288143E-2,1.335665E-1,-6.468811E-2,1.4744386E-2,-1.882758E-1,-2.8244874E-1,7.045254E-3,-1.8703344E-1,1.6881354E-1,-4.465023E-2,1.3786969E-1,-2.6735076E-1,-1.1066422E-1,-2.3690425E-1,1.21711634E-1,4.0407926E-2,2.591616E-1,4.5866653E-2,-1.1659865E-1,-1.5608415E-1,1.884691E-1,-3.609094E-2,3.1774977E-1],"categories":[],"categories_nodes":[],"categories_segments":[],"categories_sizes":[],"default_left":[0,0,0,0,0,0,0,0,0,0,0,0,0,0,0,0,0,0,0,0,0,0,0,0,0,0,0,0,0,0,0,0,0,0,0,0,0,0,0,0,0,0,0,0,0,0,0,0,0,0,0,0,0,0,0,0,0,0,0,0,0,0,0,0,0,0,0,0,0,0,0,0,0,0,0,0,0,0,0,0,0,0,0,0,0,0,0],"id":7,"left_children":[1,3,5,7,9,11,13,15,17,19,21,23,25,27,29,31,33,35,37,39,41,-1,43,45,47,49,51,53,55,-1,-1,-1,57,59,61,63,65,67,-1,69,71,73,-1,-1,-1,75,77,-1,79,81,-1,-1,-1,83,85,-1,-1,-1,-1,-1,-1,-1,-1,-1,-1,-1,-1,-1,-1,-1,-1,-1,-1,-1,-1,-1,-1,-1,-1,-1,-1,-1,-1,-1,-1,-1,-1],"loss_changes":[1.2321916E1,9.84197E0,4.8881683E0,7.59107E0,4.0372405E0,2.9904172E0,2.5978584E0,7.193714E0,1.8300252E0,3.9324265E0,2.2353983E-1,2.5650575E0,1.1370449E0,4.0112605E0,5.711279E-1,1.2548542E0,5.504107E0,1.9176397E0,3.894875E0,3.0992098E0,3.274804E0,0E0,3.5630155E-1,2.7840526E0,1.9507841E0,9.2823553E-1,2.1599007E-1,2.4879541E0,7.53407E-1,0E0,0E0,0E0,3.71943E0,1.1077557E0,6.3829885E0,1.4954311E0,1.2261133E0,6.9262195E-1,0E0,3.633824E0,2.7037492E0,1.6652266E0,0E0,0E0,0E0,2.8248596E-1,3.1300244E0,0E0,3.1547117E-1,4.3248862E-1,0E0,0E0,0E0,2.0608253E0,1.378804E0,0E0,0E0,0E0,0E0,0E0,0E0,0E0,0E0,0E0,0E0,0E0,0E0,0E0,0E0,0E0,0E0,0E0,0E0,0E0,0E0,0E0,0E0,0E0,0E0,0E0,0E0,0E0,0E0,0E0,0E0,0E0,0E0],"parents":[2147483647,0,0,1,1,2,2,3,3,4,4,5,5,6,6,7,7,8,8,9,9,10,10,11,11,12,12,13,13,14,14,15,15,16,16,17,17,18,18,19,19,20,20,22,22,23,23,24,24,25,25,26,26,27,27,28,28,32,32,33,33,34,34,35,35,36,36,37,37,39,39,40,40,41,41,45,45,46,46,48,48,49,49,53,53,54,54],"right_children":[2,4,6,8,10,12,14,16,18,20,22,24,26,28,30,32,34,36,38,40,42,-1,44,46,48,50,52,54,56,-1,-1,-1,58,60,62,64,66,68,-1,70,72,74,-1,-1,-1,76,78,-1,80,82,-1,-1,-1,84,86,-1,-1,-1,-1,-1,-1,-1,-1,-1,-1,-1,-1,-1,-1,-1,-1,-1,-1,-1,-1,-1,-1,-1,-1,-1,-1,-1,-1,-1,-1,-1,-1],"split_conditions":[3E0,4E0,4E0,3E0,3E0,4E0,1E0,3E0,1E0,1E0,2E0,3E0,1E0,3E0,1E0,1E0,4E0,3E0,3E0,1E0,4E0,2.987023E-1,3E0,1E0,2E0,1E0,2E0,4E0,2E0,4.0575984E-1,9.2555806E-2,-3.1241736E-1,1E0,3E0,1E0,3E0,3E0,1E0,2.9518098E-1,3E0,2E0,3E0,2.9361996E-1,-2.7746009E-3,1.7841023E-1,3E0,2E0,-1.2069115E-1,2E0,1E0,1.939222E-1,9.183015E-2,3.235169E-1,3E0,1E0,4.9018312E-2,3.7286407E-1,-3.1346163E-1,-3.1138618E-2,-2.738352E-1,-1.03512086E-1,-7.923732E-2,2.806818E-1,-2.5550777E-1,3.0288143E-2,1.335665E-1,-6.468811E-2,1.4744386E-2,-1.882758E-1,-2.8244874E-1,7.045254E-3,-1.8703344E-1,1.6881354E-1,-4.465023E-2,1.3786969E-1,-2.6735076E-1,-1.1066422E-1,-2.3690425E-1,1.21711634E-1,4.0407926E-2,2.591616E-1,4.5866653E-2,-1.1659865E-1,-1.5608415E-1,1.884691E-1,-3.609094E-2,3.1774977E-1],"split_indices":[5,4,2,0,0,4,1,7,3,3,9,0,3,7,10,1,2,2,6,1,2,0,2,3,7,1,6,6,6,0,0,0,3,2,1,7,6,10,0,6,2,7,0,0,0,7,2,0,6,10,0,0,0,0,3,0,0,0,0,0,0,0,0,0,0,0,0,0,0,0,0,0,0,0,0,0,0,0,0,0,0,0,0,0,0,0,0],"split_type":[0,0,0,0,0,0,0,0,0,0,0,0,0,0,0,0,0,0,0,0,0,0,0,0,0,0,0,0,0,0,0,0,0,0,0,0,0,0,0,0,0,0,0,0,0,0,0,0,0,0,0,0,0,0,0,0,0,0,0,0,0,0,0,0,0,0,0,0,0,0,0,0,0,0,0,0,0,0,0,0,0,0,0,0,0,0,0],"sum_hessian":[2.0390022E2,1.4731451E2,5.65857E1,9.5369385E1,5.194513E1,3.4209316E1,2.2376383E1,6.851835E1,2.685104E1,4.407282E1,7.8723097E0,2.3518261E1,1.0691055E1,1.5365933E1,7.0104504E0,3.4315197E1,3.420315E1,1.5414149E1,1.143689E1,2.2358221E1,2.1714598E1,4.0968075E0,3.7755022E0,1.7593605E1,5.9246564E0,6.435173E0,4.2558823E0,1.0023312E1,5.342622E0,5.672435E0,1.3380153E0,1.8025347E1,1.6289848E1,1.7354052E1,1.6849102E1,5.9337564E0,9.480393E0,6.646275E0,4.790615E0,1.4578417E1,7.779805E0,1.6550018E1,5.1645794E0,1.3195666E0,2.4559355E0,8.046278E0,9.547327E0,1.3398448E0,4.5848117E0,4.3440623E0,2.0911112E0,1.5772842E0,2.6785982E0,6.8955812E0,3.12773E0,1.1201527E0,4.2224693E0,7.5969205E0,8.692927E0,5.7784014E0,1.157565E1,1.0590661E1,6.2584405E0,3.6913164E0,2.2424402E0,5.1490097E0,4.3313837E0,5.6392426E0,1.0070323E0,7.312616E0,7.2658005E0,1.7222431E0,6.0575624E0,9.66617E0,6.8838477E0,3.2517042E0,4.7945733E0,1.9535428E0,7.5937843E0,1.1710935E0,3.4137182E0,2.9743366E0,1.3697256E0,5.7764645E0,1.119117E0,1.2226048E0,1.9051253E0],"tree_param":{"num_deleted":"0","num_feature":"11","num_nodes":"87","size_leaf_vector":"1"}},{"base_weights":[-4.41111E-3,-2.4180584E-1,2.0749035E-1,-4.5803037E-1,1.152976E-1,-5.2191064E-2,5.1878494E-1,-6.8035424E-1,-1.2564242E-2,-3.1947076E-2,2.5163758E-1,-2.6996517E-1,4.0215078E-1,2.7971208E-1,9.0669656E-1,-2.872574E-1,-4.4861904E-1,-3.5026005E-1,2.198559E-1,-5.8157474E-1,1.681891E-1,-5.8580947E-1,6.750209E-2,1.3336061E-1,7.0395994E-1,1.831662E-2,7.6924014E-1,2.3816699E-1,3.07451E-1,-8.03228E-1,-6.1346635E-2,-5.428903E-1,9.2181936E-2,3.424736E-1,-7.8229636E-2,-2.5344887E-1,-2.4522303E-1,-8.412957E-2,4.7205034E-1,-8.727417E-1,-1.5009341E-2,-4.3999562E-1,9.802372E-1,-3.8568723E-1,7.420499E-1,9.807961E-1,1.3374849E-1,-3.473954E-1,2.939719E-1,5.586454E-2,1.0224327E0,-4.4154286E-2,1.4920023E-1,-1.3228326E-1,-3.1123814E-1,-1.24802075E-1,1.63374E-1,-2.3668417E-1,-2.795877E-2,1.5737437E-1,3.262037E-6,-9.246471E-2,8.142958E-2,-1.6126087E-1,9.791396E-2,-1.2003828E-1,1.7550765E-1,6.459956E-2,2.3244803E-1,-2.9697677E-1,-1.5457503E-1,-1.9007464E-1,1.2239847E-1,-2.069899E-1,1.491865E-1,1.4853348E-1,3.5858998E-1,-2.1575281E-1,1.2251341E-1,1.2355515E-2,2.9922098E-1,1.15757406E-1,3.3707657E-1,-4.7123577E-2,1.10485666E-1,-1.8648012E-1,1.6200826E-1,-1.139118E-2,2.2191572E-1,-1.5146478E-1,2.382725E-1,3.389904E-1,5.3676423E-2],"categories":[],"categories_nodes":[],"categories_segments":[],"categories_sizes":[],"default_left":[0,0,0,0,0,0,0,0,0,0,0,0,0,0,0,0,0,0,0,0,0,0,0,0,0,0,0,0,0,0,0,0,0,0,0,0,0,0,0,0,0,0,0,0,0,0,0,0,0,0,0,0,0,0,0,0,0,0,0,0,0,0,0,0,0,0,0,0,0,0,0,0,0,0,0,0,0,0,0,0,0,0,0,0,0,0,0,0,0,0,0,0,0],"id":8,"left_children":[1,3,5,7,9,11,13,15,17,19,-1,21,23,25,27,-1,29,31,33,35,37,39,41,43,45,47,49,51,-1,53,55,57,-1,59,61,-1,63,65,67,69,71,73,75,77,79,81,83,85,87,89,91,-1,-1,-1,-1,-1,-1,-1,-1,-1,-1,-1,-1,-1,-1,-1,-1,-1,-1,-1,-1,-1,-1,-1,-1,-1,-1,-1,-1,-1,-1,-1,-1,-1,-1,-1,-1,-1,-1,-1,-1,-1,-1],"loss_changes":[9.587292E0,6.992653E0,8.168306E0,5.5556116E0,3.7229013E0,5.631223E0,4.0026608E0,1.9764309E0,1.6250331E0,3.3748863E0,0E0,4.1249495E0,1.4058278E0,3.8043966E0,1.1028395E0,0E0,3.010881E0,1.2340919E0,4.7625452E-1,5.1683736E-1,1.7735891E0,3.246512E0,9.430104E0,3.765316E0,1.2066078E0,2.1665092E0,1.8147106E0,4.590811E-1,0E0,5.226078E-1,2.748108E0,6.875775E-1,0E0,5.549743E-1,4.3734485E-1,0E0,1.0106901E0,3.026101E0,6.4236856E-1,4.4036865E-2,2.2668056E0,3.4299927E0,1.6478539E-1,2.0418923E0,9.2720056E-1,3.7695408E-2,3.2575485E-1,2.5888748E0,1.8359331E0,1.9629573E0,4.8636627E-1,0E0,0E0,0E0,0E0,0E0,0E0,0E0,0E0,0E0,0E0,0E0,0E0,0E0,0E0,0E0,0E0,0E0,0E0,0E0,0E0,0E0,0E0,0E0,0E0,0E0,0E0,0E0,0E0,0E0,0E0,0E0,0E0,0E0,0E0,0E0,0E0,0E0,0E0,0E0,0E0,0E0,0E0],"parents":[2147483647,0,0,1,1,2,2,3,3,4,4,5,5,6,6,7,7,8,8,9,9,11,11,12,12,13,13,14,14,16,16,17,17,18,18,19,19,20,20,21,21,22,22,23,23,24,24,25,25,26,26,27,27,29,29,30,30,31,31,33,33,34,34,36,36,37,37,38,38,39,39,40,40,41,41,42,42,43,43,44,44,45,45,46,46,47,47,48,48,49,49,50,50],"right_children":[2,4,6,8,10,12,14,16,18,20,-1,22,24,26,28,-1,30,32,34,36,38,40,42,44,46,48,50,52,-1,54,56,58,-1,60,62,-1,64,66,68,70,72,74,76,78,80,82,84,86,88,90,92,-1,-1,-1,-1,-1,-1,-1,-1,-1,-1,-1,-1,-1,-1,-1,-1,-1,-1,-1,-1,-1,-1,-1,-1,-1,-1,-1,-1,-1,-1,-1,-1,-1,-1,-1,-1,-1,-1,-1,-1,-1,-1],"split_conditions":[3E0,4E0,1E0,3E0,3E0,3E0,3E0,1E0,3E0,3E0,2.5163758E-1,3E0,3E0,1E0,2E0,-2.872574E-1,3E0,3E0,3E0,3E0,1E0,4E0,1E0,1E0,1E0,2E0,3E0,4E0,3.07451E-1,2E0,1E0,1E0,9.2181936E-2,1E0,4E0,-2.5344887E-1,1E0,1E0,2E0,3E0,3E0,3E0,4E0,3E0,4E0,3E0,2E0,3E0,4E0,4E0,4E0,-4.4154286E-2,1.4920023E-1,-1.3228326E-1,-3.1123814E-1,-1.24802075E-1,1.63374E-1,-2.3668417E-1,-2.795877E-2,1.5737437E-1,3.262037E-6,-9.246471E-2,8.142958E-2,-1.6126087E-1,9.791396E-2,-1.2003828E-1,1.7550765E-1,6.459956E-2,2.3244803E-1,-2.9697677E-1,-1.5457503E-1,-1.9007464E-1,1.2239847E-1,-2.069899E-1,1.491865E-1,1.4853348E-1,3.5858998E-1,-2.1575281E-1,1.2251341E-1,1.2355515E-2,2.9922098E-1,1.15757406E-1,3.3707657E-1,-4.7123577E-2,1.10485666E-1,-1.8648012E-1,1.6200826E-1,-1.139118E-2,2.2191572E-1,-1.5146478E-1,2.382725E-1,3.389904E-1,5.3676423E-2],"split_indices":[6,4,3,0,0,5,7,3,2,2,0,7,7,1,2,0,7,5,9,7,3,4,1,1,1,5,2,4,0,6,1,3,0,3,2,0,1,1,0,0,2,0,2,0,2,4,0,0,2,4,4,0,0,0,0,0,0,0,0,0,0,0,0,0,0,0,0,0,0,0,0,0,0,0,0,0,0,0,0,0,0,0,0,0,0,0,0,0,0,0,0,0,0],"split_type":[0,0,0,0,0,0,0,0,0,0,0,0,0,0,0,0,0,0,0,0,0,0,0,0,0,0,0,0,0,0,0,0,0,0,0,0,0,0,0,0,0,0,0,0,0,0,0,0,0,0,0,0,0,0,0,0,0,0,0,0,0,0,0,0,0,0,0,0,0,0,0,0,0,0,0,0,0,0,0,0,0,0,0,0,0,0,0,0,0,0,0,0,0],"sum_hessian":[1.885886E2,8.887743E1,9.971115E1,5.518222E1,3.3695213E1,5.4816044E1,4.4895107E1,3.645895E1,1.8723272E1,2.8791454E1,4.9037585E0,3.7329273E1,1.7486773E1,2.8841156E1,1.6053951E1,1.5175766E1,2.1283184E1,7.426254E0,1.1297018E1,7.176624E0,2.1614832E1,1.8902262E1,1.8427011E1,1.0011995E1,7.474777E0,1.9477882E1,9.363274E0,2.8638728E0,1.319008E1,1.054944E1,1.0733744E1,5.878459E0,1.5477948E0,7.8988924E0,3.3981254E0,3.1777372E0,3.9988866E0,1.2204039E1,9.410793E0,1.2226974E1,6.6752877E0,1.2175272E1,6.2517405E0,5.6016564E0,4.410339E0,4.54711E0,2.927667E0,8.259605E0,1.1218276E1,2.772456E0,6.5908175E0,1.3253496E0,1.5385232E0,5.274286E0,5.2751546E0,6.968428E0,3.7653153E0,3.3118982E0,2.5665607E0,4.8095703E0,3.0893223E0,2.1213574E0,1.276768E0,2.685263E0,1.3136235E0,8.562549E0,3.6414893E0,6.018776E0,3.3920171E0,7.8761888E0,4.350785E0,2.508789E0,4.166498E0,9.820138E0,2.355134E0,2.9344826E0,3.317258E0,4.0113115E0,1.5903453E0,1.487875E0,2.9224637E0,1.5967122E0,2.950398E0,1.4544291E0,1.4732378E0,6.5387425E0,1.7208631E0,6.954305E0,4.2639713E0,1.7555001E0,1.016956E0,5.544389E0,1.0464287E0],"tree_param":{"num_deleted":"0","num_feature":"11","num_nodes":"93","size_leaf_vector":"1"}},{"base_weights":[1.9155571E-3,-1.2481489E-1,3.1627628E-1,-2.8353304E-1,1.4069158E-1,1.0711092E-1,6.320737E-1,-4.5461288E-1,8.70492E-2,-1.0540366E-2,4.8178744E-1,-7.7110074E-2,4.8144034E-1,3.8446105E-1,1.0526284E0,-7.4263984E-1,-1.9374457E-1,-1.1357299E-1,3.4454298E-1,-1.21189624E-1,6.303933E-1,2.1544614E-1,2.7026945E-1,-5.689258E-1,7.509439E-2,2.082743E-1,7.9706013E-1,-1.3657741E-1,6.516779E-1,7.9196356E-2,3.5194236E-1,-2.75502E-1,-3.5912663E-1,-5.1429236E-1,1.3572504E-1,-4.4863027E-1,1.2594216E-1,-1.5489239E-3,2.4667044E-1,-3.5977316E-1,1.09052494E-1,2.3970717E-1,7.2420105E-2,-1.825902E-1,7.3686635E-1,-2.554138E-1,4.7274232E-2,-2.5335512E-1,4.7980738E-1,-2.3566576E-2,1.6883875E-1,7.419034E-2,2.8939807E-1,-3.4932348E-1,9.415778E-2,3.1421477E-1,3.1273678E-1,-2.5626138E-1,1.8460318E-2,-2.5680158E-1,-9.019439E-2,-6.6840984E-2,1.9539215E-1,-2.0908453E-1,2.1132631E-2,9.81705E-2,-6.487215E-2,-1.13157876E-1,1.9787808E-1,1.5708927E-2,-1.8390924E-1,-3.8878538E-2,1.2407763E-1,-1.6723594E-1,2.0550868E-1,2.68544E-1,4.2605624E-2,-1.2957376E-1,2.0102266E-2,-6.633215E-3,3.372956E-1,5.0678767E-2,-9.698703E-2,-1.7281543E-1,3.0437203E-2,-8.112215E-2,2.5047556E-1],"categories":[],"categories_nodes":[],"categories_segments":[],"categories_sizes":[],"default_left":[0,0,0,0,0,0,0,0,0,0,0,0,0,0,0,0,0,0,0,0,0,0,0,0,0,0,0,0,0,0,0,0,0,0,0,0,0,0,0,0,0,0,0,0,0,0,0,0,0,0,0,0,0,0,0,0,0,0,0,0,0,0,0,0,0,0,0,0,0,0,0,0,0,0,0,0,0,0,0,0,0,0,0,0,0,0,0],"id":9,"left_children":[1,3,5,7,9,11,13,15,17,19,21,23,25,27,29,31,33,35,37,39,41,43,-1,45,47,49,51,53,55,-1,-1,-1,57,59,61,63,65,67,-1,69,71,-1,-1,73,75,-1,-1,77,79,81,-1,-1,-1,83,-1,85,-1,-1,-1,-1,-1,-1,-1,-1,-1,-1,-1,-1,-1,-1,-1,-1,-1,-1,-1,-1,-1,-1,-1,-1,-1,-1,-1,-1,-1,-1,-1],"loss_changes":[6.9481354E0,5.2782884E0,3.2420464E0,4.993013E0,2.4386504E0,2.1987479E0,1.6530528E0,3.8845663E0,1.3572803E0,2.4637682E0,1.4259312E0,1.6798098E0,7.372589E-1,2.0400271E0,3.315978E-1,1.3634024E0,3.1839123E0,1.267823E0,1.8896632E0,1.6622653E0,1.4278555E-1,2.2490137E0,0E0,1.2186996E0,2.4590287E0,5.8612835E-1,1.7670369E-1,6.440827E-1,9.167776E-1,0E0,0E0,0E0,2.0387778E0,8.48999E-1,2.979278E0,8.883681E-1,7.308152E-1,2.1416533E0,0E0,1.5709105E0,1.2021489E0,0E0,0E0,2.5216188E0,3.0682468E-1,0E0,0E0,6.216373E-1,2.6850107E0,3.5311976E-1,0E0,0E0,0E0,4.9396318E-1,0E0,2.2028775E0,0E0,0E0,0E0,0E0,0E0,0E0,0E0,0E0,0E0,0E0,0E0,0E0,0E0,0E0,0E0,0E0,0E0,0E0,0E0,0E0,0E0,0E0,0E0,0E0,0E0,0E0,0E0,0E0,0E0,0E0,0E0],"parents":[2147483647,0,0,1,1,2,2,3,3,4,4,5,5,6,6,7,7,8,8,9,9,10,10,11,11,12,12,13,13,14,14,15,15,16,16,17,17,18,18,19,19,20,20,21,21,23,23,24,24,25,25,26,26,27,27,28,28,32,32,33,33,34,34,35,35,36,36,37,37,39,39,40,40,43,43,44,44,47,47,48,48,49,49,53,53,55,55],"right_children":[2,4,6,8,10,12,14,16,18,20,22,24,26,28,30,32,34,36,38,40,42,44,-1,46,48,50,52,54,56,-1,-1,-1,58,60,62,64,66,68,-1,70,72,-1,-1,74,76,-1,-1,78,80,82,-1,-1,-1,84,-1,86,-1,-1,-1,-1,-1,-1,-1,-1,-1,-1,-1,-1,-1,-1,-1,-1,-1,-1,-1,-1,-1,-1,-1,-1,-1,-1,-1,-1,-1,-1,-1],"split_conditions":[3E0,4E0,4E0,3E0,4E0,4E0,3E0,3E0,3E0,3E0,1E0,2E0,1E0,3E0,2E0,4E0,4E0,3E0,1E0,3E0,2E0,3E0,2.7026945E-1,3E0,3E0,1E0,2E0,1E0,1E0,7.9196356E-2,3.5194236E-1,-2.75502E-1,1E0,3E0,1E0,3E0,3E0,3E0,2.4667044E-1,2E0,1E0,2.3970717E-1,7.2420105E-2,1E0,4E0,-2.554138E-1,4.7274232E-2,1E0,1E0,1E0,1.6883875E-1,7.419034E-2,2.8939807E-1,2E0,9.415778E-2,1E0,3.1273678E-1,-2.5626138E-1,1.8460318E-2,-2.5680158E-1,-9.019439E-2,-6.6840984E-2,1.9539215E-1,-2.0908453E-1,2.1132631E-2,9.81705E-2,-6.487215E-2,-1.13157876E-1,1.9787808E-1,1.5708927E-2,-1.8390924E-1,-3.8878538E-2,1.2407763E-1,-1.6723594E-1,2.0550868E-1,2.68544E-1,4.2605624E-2,-1.2957376E-1,2.0102266E-2,-6.633215E-3,3.372956E-1,5.0678767E-2,-9.698703E-2,-1.7281543E-1,3.0437203E-2,-8.112215E-2,2.5047556E-1],"split_indices":[5,4,2,0,2,4,7,7,6,0,3,2,3,6,6,6,2,2,3,6,9,7,0,0,7,1,6,1,3,0,0,0,1,2,1,7,7,7,0,9,8,0,0,1,6,0,0,1,3,10,0,0,0,0,0,1,0,0,0,0,0,0,0,0,0,0,0,0,0,0,0,0,0,0,0,0,0,0,0,0,0,0,0,0,0,0,0],"split_type":[0,0,0,0,0,0,0,0,0,0,0,0,0,0,0,0,0,0,0,0,0,0,0,0,0,0,0,0,0,0,0,0,0,0,0,0,0,0,0,0,0,0,0,0,0,0,0,0,0,0,0,0,0,0,0,0,0,0,0,0,0,0,0,0,0,0,0,0,0,0,0,0,0,0,0,0,0,0,0,0,0,0,0,0,0,0,0],"sum_hessian":[1.7241414E2,1.2330734E2,4.9106796E1,7.7131004E1,4.617634E1,3.0346357E1,1.876044E1,5.2614628E1,2.4516375E1,3.266343E1,1.3512912E1,2.0869654E1,9.476704E0,1.30129175E1,5.7475224E0,2.412795E1,2.8486677E1,1.4094106E1,1.042227E1,2.8546198E1,4.11723E0,9.188044E0,4.324868E0,4.285166E0,1.6584488E1,5.969793E0,3.506911E0,4.577084E0,8.435834E0,1.1847839E0,4.5627384E0,1.5590762E1,8.537189E0,1.4154501E1,1.4332177E1,5.5112925E0,8.582813E0,6.621611E0,3.8006582E0,1.3742861E1,1.4803337E1,2.1368232E0,1.9804068E0,5.579015E0,3.6090286E0,2.9617906E0,1.3233752E0,9.361247E0,7.223241E0,4.1738267E0,1.7959663E0,1.3977097E0,2.1092012E0,3.2612424E0,1.3158417E0,5.4947877E0,2.9410455E0,3.448274E0,5.088915E0,4.2885356E0,9.865965E0,8.788584E0,5.543593E0,3.4961126E0,2.01518E0,5.431409E0,3.1514041E0,4.496372E0,2.1252387E0,5.532631E0,8.21023E0,8.621607E0,6.18173E0,4.145433E0,1.433582E0,2.4518056E0,1.1572231E0,5.7873883E0,3.573859E0,4.603738E0,2.6195028E0,2.8072612E0,1.3665652E0,1.9849706E0,1.2762719E0,2.8149648E0,2.6798232E0],"tree_param":{"num_deleted":"0","num_feature":"11","num_nodes":"87","size_leaf_vector":"1"}},{"base_weights":[1.0628898E-2,-1.6418928E-1,2.0541869E-1,-2.9421663E-1,1.7261282E-1,-3.1695034E-2,4.36645E-1,-5.1621735E-1,2.111174E-3,-5.440637E-3,5.905569E-1,-2.0203005E-1,2.843931E-1,2.4668266E-1,2.428023E-1,-2.7135453E-1,-3.1020778E-1,-4.8472282E-1,1.7833097E-1,-2.575394E-1,1.9565593E-1,2.2917123E-1,1.803448E-2,-3.7288725E-1,2.0800878E-1,3.9208063E-1,-9.072227E-2,-2.2981523E-1,4.2127612E-1,-6.3473505E-1,-2.688974E-2,-2.1693495E-1,-5.9271652E-2,4.5305413E-1,-6.5305404E-2,-5.807844E-1,4.58474E-2,-3.0879578E-1,5.5787593E-1,-5.945495E-1,-7.519217E-3,6.208433E-1,-3.3730993E-1,1.4687991E-1,6.398271E-1,-6.8078035E-1,1.1688936E-1,1.1421838E-1,6.146233E-1,-2.7455965E-1,-7.4998625E-2,-9.611385E-2,1.1271297E-1,-1.8353507E-1,1.0507122E-1,-1.7990744E-1,2.0892088E-1,-7.923645E-2,1.6139284E-1,-3.6178168E-3,-2.8733566E-1,-5.4761764E-2,1.16248585E-1,-2.0769222E-1,5.2615166E-2,2.2238237E-1,1.3337154E-2,-2.753993E-1,-5.148081E-2,-1.6963835E-1,1.9252811E-1,4.3048106E-2,3.171433E-1,-1.4338972E-1,-5.112817E-3,1.4446841E-1,-1.9613798E-1,2.6433477E-1,3.960677E-2,-5.959038E-2,-2.514155E-1,1.6804275E-1,-7.203201E-2,1.5241355E-1,-2.4477507E-1,1.02895245E-1,2.38521E-1],"categories":[],"categories_nodes":[],"categories_segments":[],"categories_sizes":[],"default_left":[0,0,0,0,0,0,0,0,0,0,0,0,0,0,0,0,0,0,0,0,0,0,0,0,0,0,0,0,0,0,0,0,0,0,0,0,0,0,0,0,0,0,0,0,0,0,0,0,0,0,0,0,0,0,0,0,0,0,0,0,0,0,0,0,0,0,0,0,0,0,0,0,0,0,0,0,0,0,0,0,0,0,0,0,0,0,0],"id":10,"left_children":[1,3,5,7,9,11,13,15,17,19,21,23,25,27,-1,-1,29,31,33,35,37,-1,-1,39,41,43,-1,45,47,49,51,-1,53,55,57,59,61,63,65,67,69,71,73,75,77,79,81,83,85,-1,-1,-1,-1,-1,-1,-1,-1,-1,-1,-1,-1,-1,-1,-1,-1,-1,-1,-1,-1,-1,-1,-1,-1,-1,-1,-1,-1,-1,-1,-1,-1,-1,-1,-1,-1,-1,-1],"loss_changes":[5.5842433E0,3.837092E0,4.2650743E0,4.128868E0,1.8421685E0,2.1688013E0,2.5844626E0,2.5892572E0,2.4774308E0,9.791424E-1,6.3375044E-1,1.9037753E0,1.0125605E0,2.3835058E0,0E0,0E0,2.278057E0,7.35682E-1,1.4481742E0,8.6617607E-1,2.1382034E0,0E0,0E0,1.5147202E0,2.079982E0,6.5863454E-1,0E0,1.3331503E0,1.145004E0,1.0218992E0,1.818483E0,0E0,1.084423E0,3.0019124E0,1.5941911E0,8.928193E-1,4.8762888E-1,1.0759339E0,5.902655E-1,1.4378848E0,3.295704E0,9.065087E-1,1.823144E-1,2.331195E0,6.022515E-1,1.08893394E-1,9.868151E-1,3.7615197E0,3.317628E-1,0E0,0E0,0E0,0E0,0E0,0E0,0E0,0E0,0E0,0E0,0E0,0E0,0E0,0E0,0E0,0E0,0E0,0E0,0E0,0E0,0E0,0E0,0E0,0E0,0E0,0E0,0E0,0E0,0E0,0E0,0E0,0E0,0E0,0E0,0E0,0E0,0E0,0E0],"parents":[2147483647,0,0,1,1,2,2,3,3,4,4,5,5,6,6,7,7,8,8,9,9,10,10,11,11,12,12,13,13,16,16,17,17,18,18,19,19,20,20,23,23,24,24,25,25,27,27,28,28,29,29,30,30,32,32,33,33,34,34,35,35,36,36,37,37,38,38,39,39,40,40,41,41,42,42,43,43,44,44,45,45,46,46,47,47,48,48],"right_children":[2,4,6,8,10,12,14,16,18,20,22,24,26,28,-1,-1,30,32,34,36,38,-1,-1,40,42,44,-1,46,48,50,52,-1,54,56,58,60,62,64,66,68,70,72,74,76,78,80,82,84,86,-1,-1,-1,-1,-1,-1,-1,-1,-1,-1,-1,-1,-1,-1,-1,-1,-1,-1,-1,-1,-1,-1,-1,-1,-1,-1,-1,-1,-1,-1,-1,-1,-1,-1,-1,-1,-1,-1],"split_conditions":[1E0,3E0,3E0,4E0,1E0,4E0,4E0,3E0,3E0,3E0,3E0,3E0,3E0,3E0,2.428023E-1,-2.7135453E-1,3E0,3E0,2E0,3E0,3E0,2.2917123E-1,1.803448E-2,1E0,3E0,3E0,-9.072227E-2,2E0,2E0,3E0,1E0,-2.1693495E-1,3E0,2E0,3E0,3E0,3E0,2E0,1E0,3E0,3E0,3E0,4E0,1E0,2E0,1E0,2E0,1E0,4E0,-2.7455965E-1,-7.4998625E-2,-9.611385E-2,1.1271297E-1,-1.8353507E-1,1.0507122E-1,-1.7990744E-1,2.0892088E-1,-7.923645E-2,1.6139284E-1,-3.6178168E-3,-2.8733566E-1,-5.4761764E-2,1.16248585E-1,-2.0769222E-1,5.2615166E-2,2.2238237E-1,1.3337154E-2,-2.753993E-1,-5.148081E-2,-1.6963835E-1,1.9252811E-1,4.3048106E-2,3.171433E-1,-1.4338972E-1,-5.112817E-3,1.4446841E-1,-1.9613798E-1,2.6433477E-1,3.960677E-2,-5.959038E-2,-2.514155E-1,1.6804275E-1,-7.203201E-2,1.5241355E-1,-2.4477507E-1,1.02895245E-1,2.38521E-1],"split_indices":[3,0,6,4,1,4,2,6,2,4,9,5,9,4,0,0,7,7,9,6,2,0,0,1,4,7,0,5,9,5,1,0,6,7,5,7,7,5,10,0,7,7,2,1,6,8,9,10,6,0,0,0,0,0,0,0,0,0,0,0,0,0,0,0,0,0,0,0,0,0,0,0,0,0,0,0,0,0,0,0,0,0,0,0,0,0,0],"split_type":[0,0,0,0,0,0,0,0,0,0,0,0,0,0,0,0,0,0,0,0,0,0,0,0,0,0,0,0,0,0,0,0,0,0,0,0,0,0,0,0,0,0,0,0,0,0,0,0,0,0,0,0,0,0,0,0,0,0,0,0,0,0,0,0,0,0,0,0,0,0,0,0,0,0,0,0,0,0,0,0,0,0,0,0,0,0,0],"sum_hessian":[1.6199736E2,8.5458206E1,7.653916E1,6.1746506E1,2.3711697E1,3.8214542E1,3.832462E1,3.4876175E1,2.687033E1,1.7319983E1,6.391714E0,2.5067106E1,1.3147435E1,2.6486431E1,1.1838188E1,1.0914085E1,2.396209E1,6.676051E0,2.0194279E1,7.56086E0,9.759123E0,4.485678E0,1.9060359E0,1.775815E1,7.308957E0,1.1389169E1,1.758266E0,7.0176573E0,1.9468775E1,1.0590648E1,1.3371442E1,3.8302155E0,2.8458357E0,9.087598E0,1.1106681E1,3.2179463E0,4.342914E0,4.1404066E0,5.6187162E0,1.0662276E1,7.0958734E0,4.0809617E0,3.2279956E0,6.5245376E0,4.864631E0,2.6313875E0,4.3862696E0,8.137007E0,1.1331768E1,5.3279696E0,5.262678E0,7.8518047E0,5.5196376E0,1.0011433E0,1.8446923E0,1.4313104E0,7.6562877E0,8.776507E0,2.3301737E0,1.6941797E0,1.5237666E0,2.882029E0,1.4608848E0,2.070521E0,2.0698857E0,3.8129048E0,1.8058113E0,5.3785524E0,5.2837234E0,3.8858023E0,3.210071E0,2.583397E0,1.4975646E0,1.9008007E0,1.3271948E0,4.882293E0,1.6422446E0,2.7993445E0,2.0652864E0,1.2038267E0,1.4275608E0,1.7028878E0,2.6833818E0,6.035375E0,2.101632E0,5.680803E0,5.650965E0],"tree_param":{"num_deleted":"0","num_feature":"11","num_nodes":"87","size_leaf_vector":"1"}},{"base_weights":[3.8977754E-3,-1.23432495E-1,2.4187112E-1,-4.608895E-1,-1.6094733E-2,6.471299E-2,5.706164E-1,-7.2688377E-1,-6.172642E-2,-1.6582091E-1,2.2510101E-1,-8.3680935E-2,6.101764E-1,2.553774E-1,8.025183E-1,-4.837644E-1,-2.6583627E-1,-4.030022E-1,3.1100112E-1,-3.2662812E-1,1.24039486E-1,4.6457738E-2,4.61993E-1,-3.5273165E-1,1.4738166E-1,3.3018968E-1,2.6603848E-1,-1.4432733E-1,5.992082E-1,2.7885798E-1,4.305274E-2,-2.340955E-1,-1.3555995E-1,-5.6551325E-1,-5.7634986E-3,-2.3192496E-3,1.7323568E-1,-5.351498E-1,5.8554098E-2,-2.4120322E-1,6.011152E-1,-1.6276777E-1,5.709589E-1,6.805694E-1,3.287501E-1,-6.6239953E-1,6.1851E-2,-2.9883453E-1,3.386648E-1,5.63199E-1,-7.1007214E-2,6.560119E-2,-4.2709097E-1,3.4816816E-2,2.193168E-1,-1.6688624E-1,1.3830815E-1,-2.1477045E-1,-7.6677136E-2,-1.2563042E-1,1.1301724E-1,-2.8399608E-1,-7.914737E-2,6.814946E-2,-7.187686E-2,-1.3771598E-1,8.95999E-2,-7.71496E-2,2.6211557E-1,-1.5410729E-1,7.812981E-2,2.4819194E-1,1.7077219E-2,2.6265532E-1,1.9588055E-2,4.0535387E-2,2.176503E-1,-2.4721642E-1,-9.800521E-2,-3.6289807E-2,1.365502E-1,-2.3724927E-1,1.0308781E-1,2.1942956E-3,2.2721303E-1,6.872834E-2,2.1341886E-1,-3.0921998E-2,-1.649267E-1],"categories":[],"categories_nodes":[],"categories_segments":[],"categories_sizes":[],"default_left":[0,0,0,0,0,0,0,0,0,0,0,0,0,0,0,0,0,0,0,0,0,0,0,0,0,0,0,0,0,0,0,0,0,0,0,0,0,0,0,0,0,0,0,0,0,0,0,0,0,0,0,0,0,0,0,0,0,0,0,0,0,0,0,0,0,0,0,0,0,0,0,0,0,0,0,0,0,0,0,0,0,0,0,0,0,0,0,0,0],"id":11,"left_children":[1,3,5,7,9,11,13,15,17,19,21,23,25,27,29,31,-1,33,35,37,39,41,43,45,47,49,-1,51,53,-1,-1,-1,55,57,-1,59,-1,61,63,65,67,69,71,73,75,77,79,81,83,85,-1,-1,87,-1,-1,-1,-1,-1,-1,-1,-1,-1,-1,-1,-1,-1,-1,-1,-1,-1,-1,-1,-1,-1,-1,-1,-1,-1,-1,-1,-1,-1,-1,-1,-1,-1,-1,-1,-1],"loss_changes":[4.6650147E0,3.6260905E0,3.0880492E0,2.5215125E0,2.823155E0,2.964634E0,1.1593146E0,1.2928343E-1,1.493883E0,2.285863E0,1.2468381E0,1.8658091E0,3.1275368E-1,1.3750896E0,7.274842E-1,7.1062565E-1,0E0,3.665955E-1,4.7777385E-1,2.5419512E0,3.2663527E0,2.089889E0,1.4824891E-1,1.8094157E0,1.5011396E0,8.570129E-1,0E0,6.2115955E-1,2.4861503E-1,0E0,0E0,0E0,1.472982E0,1.3546705E-2,0E0,7.2898835E-1,0E0,2.025505E0,6.516318E-1,1.4142895E0,2.109048E0,2.181216E0,6.659069E-1,4.1097283E-1,6.6020036E-1,1.6335392E-1,5.4432106E-1,1.995244E0,1.652271E0,4.3931723E-2,0E0,0E0,7.167107E-2,0E0,0E0,0E0,0E0,0E0,0E0,0E0,0E0,0E0,0E0,0E0,0E0,0E0,0E0,0E0,0E0,0E0,0E0,0E0,0E0,0E0,0E0,0E0,0E0,0E0,0E0,0E0,0E0,0E0,0E0,0E0,0E0,0E0,0E0,0E0,0E0],"parents":[2147483647,0,0,1,1,2,2,3,3,4,4,5,5,6,6,7,7,8,8,9,9,10,10,11,11,12,12,13,13,14,14,15,15,17,17,18,18,19,19,20,20,21,21,22,22,23,23,24,24,25,25,27,27,28,28,32,32,33,33,35,35,37,37,38,38,39,39,40,40,41,41,42,42,43,43,44,44,45,45,46,46,47,47,48,48,49,49,52,52],"right_children":[2,4,6,8,10,12,14,16,18,20,22,24,26,28,30,32,-1,34,36,38,40,42,44,46,48,50,-1,52,54,-1,-1,-1,56,58,-1,60,-1,62,64,66,68,70,72,74,76,78,80,82,84,86,-1,-1,88,-1,-1,-1,-1,-1,-1,-1,-1,-1,-1,-1,-1,-1,-1,-1,-1,-1,-1,-1,-1,-1,-1,-1,-1,-1,-1,-1,-1,-1,-1,-1,-1,-1,-1,-1,-1],"split_conditions":[1E0,3E0,4E0,3E0,4E0,3E0,3E0,2E0,2E0,3E0,1E0,1E0,1E0,2E0,1E0,4E0,-2.6583627E-1,3E0,3E0,3E0,3E0,4E0,2E0,4E0,3E0,3E0,2.6603848E-1,2E0,3E0,2.7885798E-1,4.305274E-2,-2.340955E-1,3E0,3E0,-5.7634986E-3,1E0,1.7323568E-1,3E0,2E0,4E0,2E0,3E0,3E0,4E0,4E0,2E0,3E0,3E0,3E0,3E0,-7.1007214E-2,6.560119E-2,1E0,3.4816816E-2,2.193168E-1,-1.6688624E-1,1.3830815E-1,-2.1477045E-1,-7.6677136E-2,-1.2563042E-1,1.1301724E-1,-2.8399608E-1,-7.914737E-2,6.814946E-2,-7.187686E-2,-1.3771598E-1,8.95999E-2,-7.71496E-2,2.6211557E-1,-1.5410729E-1,7.812981E-2,2.4819194E-1,1.7077219E-2,2.6265532E-1,1.9588055E-2,4.0535387E-2,2.176503E-1,-2.4721642E-1,-9.800521E-2,-3.6289807E-2,1.365502E-1,-2.3724927E-1,1.0308781E-1,2.1942956E-3,2.2721303E-1,6.872834E-2,2.1341886E-1,-3.0921998E-2,-1.649267E-1],"split_indices":[1,2,2,0,4,0,6,2,5,5,3,3,3,5,10,4,0,7,6,0,7,6,6,4,4,9,0,6,4,0,0,0,7,4,0,8,0,7,5,6,6,7,7,2,2,0,5,5,7,6,0,0,8,0,0,0,0,0,0,0,0,0,0,0,0,0,0,0,0,0,0,0,0,0,0,0,0,0,0,0,0,0,0,0,0,0,0,0,0],"split_type":[0,0,0,0,0,0,0,0,0,0,0,0,0,0,0,0,0,0,0,0,0,0,0,0,0,0,0,0,0,0,0,0,0,0,0,0,0,0,0,0,0,0,0,0,0,0,0,0,0,0,0,0,0,0,0,0,0,0,0,0,0,0,0,0,0,0,0,0,0,0,0,0,0,0,0,0,0,0,0,0,0,0,0,0,0,0,0,0,0],"sum_hessian":[1.5196947E2,9.931252E1,5.2656948E1,2.317121E1,7.614131E1,3.4995182E1,1.7661766E1,1.341242E1,9.758788E0,4.7171402E1,2.896991E1,2.8176357E1,6.8188224E0,8.3764105E0,9.285356E0,6.9062047E0,6.5062156E0,5.0519295E0,4.7068586E0,3.025812E1,1.6913284E1,1.7197311E1,1.1772598E1,1.2774772E1,1.5401587E1,4.478975E0,2.3398473E0,4.141794E0,4.2346163E0,7.4408245E0,1.8445313E0,3.0595295E0,3.8466752E0,3.2164652E0,1.8354644E0,2.618755E0,2.0881033E0,1.9378216E1,1.0879905E1,9.859442E0,7.053842E0,1.2786428E1,4.410883E0,2.9028783E0,8.86972E0,6.970491E0,5.8042808E0,4.452573E0,1.0949014E1,3.178844E0,1.3001311E0,1.912845E0,2.2289493E0,1.3109412E0,2.923675E0,2.2954319E0,1.5512433E0,1.2836478E0,1.9328175E0,1.1978711E0,1.420884E0,6.711007E0,1.2667208E1,7.101707E0,3.7781975E0,7.1314363E0,2.728006E0,1.7140032E0,5.339839E0,6.8732324E0,5.9131956E0,2.5365014E0,1.8743818E0,1.8832185E0,1.0196598E0,6.8615417E0,2.0081782E0,3.7231033E0,3.2473876E0,4.4352036E0,1.3690771E0,2.390776E0,2.061797E0,6.6801224E0,4.268891E0,1.7590387E0,1.4198052E0,1.117464E0,1.1114854E0],"tree_param":{"num_deleted":"0","num_feature":"11","num_nodes":"89","size_leaf_vector":"1"}},{"base_weights":[5.8650714E-3,-1.5825844E-1,1.4993246E-1,-2.8859693E-1,1.4526714E-1,-2.718337E-2,3.8872695E-1,-7.1444243E-1,-1.6236846E-1,3.5659366E-3,2.024524E-1,-2.3212668E-1,1.6795039E-1,1.757707E-1,7.1972495E-1,-2.660957E-1,-4.5563027E-1,-3.729478E-1,6.282689E-2,-2.9854375E-1,1.1441992E-1,-4.2741057E-1,1.0782327E-1,-2.2879291E-2,5.27739E-1,4.981224E-1,-1.4463687E-1,4.1606996E-2,2.4497727E-1,-2.2085221E-1,-1.6876325E-1,-7.979882E-1,-1.179659E-1,-5.2455086E-2,3.8381946E-1,-5.0639844E-1,5.8098733E-2,2.4295348E-1,-1.4648609E-1,-6.7370546E-1,-1.6041417E-2,-2.1436894E-1,4.8133934E-1,-2.9375264E-1,1.6994247E-1,8.480362E-1,-1.1506047E-2,2.2639267E-1,2.3374006E-1,-4.612407E-1,5.57535E-1,-1.2969305E-1,1.0096704E-1,-2.683956E-1,-7.479149E-2,-1.379331E-1,8.607854E-2,-7.679193E-2,6.364459E-2,1.7463171E-1,-1.028388E-2,-2.276267E-1,-7.207891E-3,8.067792E-3,1.455672E-1,6.095345E-2,-2.3538435E-1,-2.5801516E-1,-1.1014122E-1,-1.4479908E-1,9.3002014E-2,-1.5764217E-1,1.1156868E-1,2.0396584E-1,7.5410856E-3,-1.5464401E-1,1.175969E-1,3.2287652E-3,1.4181611E-1,8.57026E-2,2.841923E-1,-1.1808217E-1,7.569066E-2,4.4928784E-3,1.5150484E-1,-2.5110114E-1,6.823479E-2,4.8949655E-2,2.1838477E-1],"categories":[],"categories_nodes":[],"categories_segments":[],"categories_sizes":[],"default_left":[0,0,0,0,0,0,0,0,0,0,0,0,0,0,0,0,0,0,0,0,0,0,0,0,0,0,0,0,0,0,0,0,0,0,0,0,0,0,0,0,0,0,0,0,0,0,0,0,0,0,0,0,0,0,0,0,0,0,0,0,0,0,0,0,0,0,0,0,0,0,0,0,0,0,0,0,0,0,0,0,0,0,0,0,0,0,0,0,0],"id":12,"left_children":[1,3,5,7,9,11,13,15,17,19,-1,21,23,25,27,-1,29,31,33,35,37,39,41,43,45,47,49,-1,-1,-1,51,53,55,57,59,61,-1,63,65,67,69,71,73,75,77,79,81,83,-1,85,87,-1,-1,-1,-1,-1,-1,-1,-1,-1,-1,-1,-1,-1,-1,-1,-1,-1,-1,-1,-1,-1,-1,-1,-1,-1,-1,-1,-1,-1,-1,-1,-1,-1,-1,-1,-1,-1,-1],"loss_changes":[3.4416106E0,2.734389E0,3.288052E0,2.4613655E0,1.5817782E0,1.8556659E0,2.2042222E0,7.229233E-2,1.838668E0,6.255875E-1,0E0,1.5448514E0,1.6496122E0,2.286831E0,5.971403E-1,0E0,3.8469517E-1,2.065343E0,7.362946E-1,6.114061E-1,4.9308378E-1,1.462421E0,1.1905727E0,9.139673E-1,1.4446199E0,6.5702486E-1,2.8202243E0,0E0,0E0,0E0,7.346798E-1,1.6401911E-1,2.0179596E0,8.6849207E-1,4.5388502E-1,4.4488627E-1,0E0,4.8505658E-1,1.3032818E0,2.0243263E-1,1.13396E0,1.2064073E0,3.89845E-1,1.3037561E0,4.9120334E-1,2.1082163E-2,5.1080966E-1,4.02327E-1,0E0,2.3883758E0,1.524452E-1,0E0,0E0,0E0,0E0,0E0,0E0,0E0,0E0,0E0,0E0,0E0,0E0,0E0,0E0,0E0,0E0,0E0,0E0,0E0,0E0,0E0,0E0,0E0,0E0,0E0,0E0,0E0,0E0,0E0,0E0,0E0,0E0,0E0,0E0,0E0,0E0,0E0,0E0],"parents":[2147483647,0,0,1,1,2,2,3,3,4,4,5,5,6,6,7,7,8,8,9,9,11,11,12,12,13,13,14,14,16,16,17,17,18,18,19,19,20,20,21,21,22,22,23,23,24,24,25,25,26,26,30,30,31,31,32,32,33,33,34,34,35,35,37,37,38,38,39,39,40,40,41,41,42,42,43,43,44,44,45,45,46,46,47,47,49,49,50,50],"right_children":[2,4,6,8,10,12,14,16,18,20,-1,22,24,26,28,-1,30,32,34,36,38,40,42,44,46,48,50,-1,-1,-1,52,54,56,58,60,62,-1,64,66,68,70,72,74,76,78,80,82,84,-1,86,88,-1,-1,-1,-1,-1,-1,-1,-1,-1,-1,-1,-1,-1,-1,-1,-1,-1,-1,-1,-1,-1,-1,-1,-1,-1,-1,-1,-1,-1,-1,-1,-1,-1,-1,-1,-1,-1,-1],"split_conditions":[3E0,3E0,3E0,3E0,4E0,1E0,1E0,4E0,4E0,2E0,2.024524E-1,3E0,1E0,2E0,2E0,-2.660957E-1,1E0,1E0,3E0,1E0,3E0,4E0,1E0,2E0,2E0,2E0,1E0,4.1606996E-2,2.4497727E-1,-2.2085221E-1,1E0,3E0,1E0,1E0,3E0,1E0,5.8098733E-2,2E0,1E0,3E0,2E0,3E0,1E0,3E0,1E0,3E0,3E0,4E0,2.3374006E-1,1E0,4E0,-1.2969305E-1,1.0096704E-1,-2.683956E-1,-7.479149E-2,-1.379331E-1,8.607854E-2,-7.679193E-2,6.364459E-2,1.7463171E-1,-1.028388E-2,-2.276267E-1,-7.207891E-3,8.067792E-3,1.455672E-1,6.095345E-2,-2.3538435E-1,-2.5801516E-1,-1.1014122E-1,-1.4479908E-1,9.3002014E-2,-1.5764217E-1,1.1156868E-1,2.0396584E-1,7.5410856E-3,-1.5464401E-1,1.175969E-1,3.2287652E-3,1.4181611E-1,8.57026E-2,2.841923E-1,-1.1808217E-1,7.569066E-2,4.4928784E-3,1.5150484E-1,-2.5110114E-1,6.823479E-2,4.8949655E-2,2.1838477E-1],"split_indices":[6,0,7,2,4,3,3,4,4,2,0,5,1,9,2,0,3,3,5,1,9,4,1,5,5,0,10,0,0,0,1,9,1,3,7,3,0,9,8,0,7,0,8,0,10,2,2,4,0,1,4,0,0,0,0,0,0,0,0,0,0,0,0,0,0,0,0,0,0,0,0,0,0,0,0,0,0,0,0,0,0,0,0,0,0,0,0,0,0],"split_type":[0,0,0,0,0,0,0,0,0,0,0,0,0,0,0,0,0,0,0,0,0,0,0,0,0,0,0,0,0,0,0,0,0,0,0,0,0,0,0,0,0,0,0,0,0,0,0,0,0,0,0,0,0,0,0,0,0,0,0,0,0,0,0,0,0,0,0,0,0,0,0,0,0,0,0,0,0,0,0,0,0,0,0,0,0,0,0,0,0],"sum_hessian":[1.4355084E2,6.705845E1,7.6492386E1,4.6947613E1,2.0110836E1,4.442682E1,3.206557E1,9.668834E0,3.727878E1,1.665981E1,3.4510272E0,2.157629E1,2.2850527E1,2.0443647E1,1.1621924E1,4.3449993E0,5.323835E0,1.8925503E1,1.8353277E1,4.0175843E0,1.2642224E1,1.354062E1,8.03567E0,1.55430155E1,7.307512E0,9.914419E0,1.0529228E1,2.008146E0,9.613778E0,1.8997272E0,3.4241078E0,6.2978153E0,1.2627688E1,1.4119098E1,4.234179E0,2.804453E0,1.2131314E0,8.515788E0,4.126436E0,8.070773E0,5.469847E0,4.542995E0,3.4926753E0,6.2457004E0,9.297315E0,4.2252116E0,3.0823E0,5.958427E0,3.9559922E0,7.493562E0,3.0356662E0,2.3453736E0,1.0787342E0,4.818395E0,1.4794202E0,6.7737513E0,5.853937E0,7.999194E0,6.1199036E0,2.6059988E0,1.6281799E0,1.465038E0,1.339415E0,5.088649E0,3.427139E0,3.1060631E0,1.0203731E0,3.8967502E0,4.174023E0,2.052326E0,3.417521E0,3.0357478E0,1.5072471E0,2.0919204E0,1.4007549E0,4.9072747E0,1.3384258E0,6.7723975E0,2.5249176E0,1.2157648E0,3.009447E0,1.0579456E0,2.0243545E0,3.9869354E0,1.9714915E0,4.7089233E0,2.784639E0,1.506595E0,1.5290712E0],"tree_param":{"num_deleted":"0","num_feature":"11","num_nodes":"89","size_leaf_vector":"1"}},{"base_weights":[4.9090805E-3,-9.929425E-2,2.516774E-1,-1.8772136E-1,1.3501586E-1,7.756136E-2,5.320353E-1,-6.099014E-1,-7.899458E-2,4.4417765E-2,4.8306927E-1,-6.714775E-2,3.9177883E-1,3.1323674E-1,2.654604E-1,-2.607506E-1,-3.686845E-1,-2.7920812E-1,7.9248935E-2,-1.6958496E-1,1.9633523E-1,2.2006829E-1,1.3672477E-1,-4.3476453E-1,3.204605E-2,1.2812808E-1,6.9568276E-1,-7.759699E-2,5.135873E-1,-6.140924E-1,-2.7366184E-2,-5.720248E-1,-3.732179E-2,-1.348635E-1,2.7625602E-1,1.7854106E-2,-5.483591E-1,4.4310436E-1,-8.255769E-2,-2.9372115E-2,8.3300956E-2,-2.213276E-1,5.515866E-2,-1.7689157E-1,2.8853962E-1,-6.969971E-2,1.326744E-1,4.2502634E-2,2.596044E-1,9.8136075E-2,-1.1795918E-1,2.1947098E-1,1.1641345E-1,-8.9036845E-2,-2.2997661E-1,8.887989E-2,-1.8904547E-1,-2.5248703E-1,-9.266192E-2,-5.846947E-2,6.647931E-2,-1.1948838E-1,7.031256E-2,3.4447382E-3,2.0712951E-1,-8.996306E-2,1.13176934E-1,-2.0423049E-1,-5.4451276E-2,5.8342926E-2,2.3117596E-1,-1.160861E-1,7.9400405E-2,-8.477557E-2,3.0501414E-2,-3.8959377E-3,1.9263908E-1,5.0757978E-2,-1.19031794E-1,1.1298508E-1,-3.3102214E-2],"categories":[],"categories_nodes":[],"categories_segments":[],"categories_sizes":[],"default_left":[0,0,0,0,0,0,0,0,0,0,0,0,0,0,0,0,0,0,0,0,0,0,0,0,0,0,0,0,0,0,0,0,0,0,0,0,0,0,0,0,0,0,0,0,0,0,0,0,0,0,0,0,0,0,0,0,0,0,0,0,0,0,0,0,0,0,0,0,0,0,0,0,0,0,0,0,0,0,0,0,0],"id":13,"left_children":[1,3,5,7,9,11,13,15,17,19,21,23,25,27,-1,-1,29,31,33,35,37,-1,39,41,43,45,47,49,51,53,55,57,59,61,63,65,67,69,71,-1,-1,-1,-1,73,75,77,-1,-1,-1,-1,-1,-1,79,-1,-1,-1,-1,-1,-1,-1,-1,-1,-1,-1,-1,-1,-1,-1,-1,-1,-1,-1,-1,-1,-1,-1,-1,-1,-1,-1,-1],"loss_changes":[3.5219052E0,2.0213094E0,1.9434931E0,3.1813755E0,8.291802E-1,1.2200131E0,9.121909E-1,5.713644E-1,1.8311088E0,7.649755E-1,3.7428963E-1,7.005103E-1,5.858551E-1,9.056885E-1,0E0,0E0,7.474232E-1,1.7796085E0,1.4153378E0,7.112541E-1,9.7432536E-1,0E0,1.4375743E-1,8.9843637E-1,8.95569E-1,3.8730872E-1,2.2402453E-1,7.1822697E-1,5.5908406E-1,2.704966E-2,1.1353352E0,5.511472E-1,6.5495044E-1,1.6814978E0,1.8939265E0,9.7847706E-1,3.684497E-2,4.5153213E-1,8.675772E-1,0E0,0E0,0E0,0E0,3.026738E-1,8.030973E-1,4.0965578E-1,0E0,0E0,0E0,0E0,0E0,0E0,2.6730475E-1,0E0,0E0,0E0,0E0,0E0,0E0,0E0,0E0,0E0,0E0,0E0,0E0,0E0,0E0,0E0,0E0,0E0,0E0,0E0,0E0,0E0,0E0,0E0,0E0,0E0,0E0,0E0,0E0],"parents":[2147483647,0,0,1,1,2,2,3,3,4,4,5,5,6,6,7,7,8,8,9,9,10,10,11,11,12,12,13,13,16,16,17,17,18,18,19,19,20,20,22,22,23,23,24,24,25,25,26,26,27,27,28,28,29,29,30,30,31,31,32,32,33,33,34,34,35,35,36,36,37,37,38,38,43,43,44,44,45,45,52,52],"right_children":[2,4,6,8,10,12,14,16,18,20,22,24,26,28,-1,-1,30,32,34,36,38,-1,40,42,44,46,48,50,52,54,56,58,60,62,64,66,68,70,72,-1,-1,-1,-1,74,76,78,-1,-1,-1,-1,-1,-1,80,-1,-1,-1,-1,-1,-1,-1,-1,-1,-1,-1,-1,-1,-1,-1,-1,-1,-1,-1,-1,-1,-1,-1,-1,-1,-1,-1,-1],"split_conditions":[3E0,3E0,4E0,3E0,4E0,4E0,3E0,4E0,3E0,2E0,2E0,2E0,1E0,3E0,2.654604E-1,-2.607506E-1,1E0,4E0,1E0,1E0,3E0,2.2006829E-1,3E0,3E0,3E0,1E0,2E0,2E0,1E0,2E0,2E0,1E0,4E0,4E0,3E0,3E0,3E0,4E0,1E0,-2.9372115E-2,8.3300956E-2,-2.213276E-1,5.515866E-2,3E0,1E0,1E0,1.326744E-1,4.2502634E-2,2.596044E-1,9.8136075E-2,-1.1795918E-1,2.1947098E-1,2E0,-8.9036845E-2,-2.2997661E-1,8.887989E-2,-1.8904547E-1,-2.5248703E-1,-9.266192E-2,-5.846947E-2,6.647931E-2,-1.1948838E-1,7.031256E-2,3.4447382E-3,2.0712951E-1,-8.996306E-2,1.13176934E-1,-2.0423049E-1,-5.4451276E-2,5.8342926E-2,2.3117596E-1,-1.160861E-1,7.9400405E-2,-8.477557E-2,3.0501414E-2,-3.8959377E-3,1.9263908E-1,5.0757978E-2,-1.19031794E-1,1.1298508E-1,-3.3102214E-2],"split_indices":[5,0,2,2,4,4,7,4,6,9,9,2,3,6,0,0,1,4,3,10,9,0,2,0,7,1,6,9,8,2,5,1,2,4,7,6,2,2,3,0,0,0,0,0,3,10,0,0,0,0,0,0,7,0,0,0,0,0,0,0,0,0,0,0,0,0,0,0,0,0,0,0,0,0,0,0,0,0,0,0,0],"split_type":[0,0,0,0,0,0,0,0,0,0,0,0,0,0,0,0,0,0,0,0,0,0,0,0,0,0,0,0,0,0,0,0,0,0,0,0,0,0,0,0,0,0,0,0,0,0,0,0,0,0,0,0,0,0,0,0,0,0,0,0,0,0,0,0,0,0,0,0,0,0,0,0,0,0,0,0,0,0,0,0,0],"sum_hessian":[1.3499223E2,9.533328E1,3.9658947E1,6.935718E1,2.597611E1,2.5252533E1,1.4406413E1,1.3259966E1,5.609721E1,2.1505785E1,4.470325E0,1.7828247E1,7.424285E0,1.0057398E1,4.349015E0,5.1361804E0,8.123785E0,2.4427069E1,3.1670141E1,8.880178E0,1.2625606E1,1.9453515E0,2.5249734E0,3.0695121E0,1.4758735E1,4.736639E0,2.6876464E0,3.6160612E0,6.441337E0,4.2609696E0,3.8628154E0,1.0432773E1,1.3994295E1,1.5327382E1,1.6342758E1,6.577914E0,2.3022645E0,6.3861957E0,6.2394104E0,1.0621544E0,1.462819E0,1.9311091E0,1.138403E0,8.304391E0,6.454344E0,3.38373E0,1.352909E0,1.0603424E0,1.6273038E0,1.5683497E0,2.0477114E0,3.6152341E0,2.826103E0,2.3394415E0,1.9215283E0,2.844254E0,1.0185614E0,4.0674415E0,6.3653316E0,8.853429E0,5.1408668E0,8.89944E0,6.4279428E0,1.0596419E1,5.7463393E0,3.5792704E0,2.998644E0,1.0629313E0,1.239333E0,4.5361533E0,1.8500423E0,3.2637892E0,2.9756212E0,6.009717E0,2.2946737E0,4.0035615E0,2.4507828E0,2.234421E0,1.1493088E0,1.0082351E0,1.8178678E0],"tree_param":{"num_deleted":"0","num_feature":"11","num_nodes":"81","size_leaf_vector":"1"}},{"base_weights":[5.336396E-3,-1.0215669E-1,2.0280503E-1,-2.4658558E-1,5.233647E-2,5.696147E-2,4.7745752E-1,-3.688537E-1,3.3530586E-3,-2.1915051E-1,1.385513E-1,-6.6460006E-2,5.116357E-1,2.078302E-1,7.7980393E-1,-5.1421815E-1,-1.1997013E-1,-3.6171642E-1,1.685799E-1,-4.0576223E-1,1.05867825E-1,1.5212525E-2,3.6202848E-1,-4.1804895E-1,3.157733E-2,2.7756742E-1,2.2819956E-1,1.2059818E-2,2.0924081E-1,6.46033E-2,2.768355E-1,-2.6414862E-1,-2.8724954E-1,-3.1391656E-1,9.847711E-2,6.803045E-2,-2.3323978E-1,4.514509E-2,4.2073017E-1,-2.1714841E-1,-1.1104838E-1,-8.504544E-2,1.2038135E-1,-2.0471898E-1,2.8096944E-1,5.377581E-1,2.0269214E-1,-2.1259642E-1,-9.009598E-2,-1.4508918E-1,2.7709392E-1,4.7280976E-1,-5.1763788E-2,-3.3174065E-1,4.7340834E-1,-2.5622007E-1,-2.1139493E-2,-1.715948E-1,5.404453E-2,-2.6654428E-2,9.6678354E-2,-3.761337E-2,7.466256E-2,-6.2213466E-2,8.118552E-2,1.8396789E-1,1.40381865E-2,-1.8359968E-1,6.2139522E-2,-1.15720905E-1,5.4629464E-2,-3.3605136E-2,2.1528497E-1,5.3857464E-2,2.4302639E-1,1.6241533E-1,-4.5828905E-2,-9.451745E-2,5.2735094E-2,-1.1734603E-1,9.518724E-2,2.0007065E-1,-5.657124E-2,3.2120343E-2,1.7528862E-1,-1.9758172E-1,2.0488331E-2,2.1478997E-1,1.24200685E-2],"categories":[],"categories_nodes":[],"categories_segments":[],"categories_sizes":[],"default_left":[0,0,0,0,0,0,0,0,0,0,0,0,0,0,0,0,0,0,0,0,0,0,0,0,0,0,0,0,0,0,0,0,0,0,0,0,0,0,0,0,0,0,0,0,0,0,0,0,0,0,0,0,0,0,0,0,0,0,0,0,0,0,0,0,0,0,0,0,0,0,0,0,0,0,0,0,0,0,0,0,0,0,0,0,0,0,0,0,0],"id":14,"left_children":[1,3,5,7,9,11,13,15,17,19,21,23,25,27,29,31,33,35,37,39,41,43,45,47,49,51,-1,53,-1,-1,-1,-1,55,57,59,61,-1,63,65,-1,67,-1,-1,69,71,73,75,-1,77,79,81,83,-1,85,87,-1,-1,-1,-1,-1,-1,-1,-1,-1,-1,-1,-1,-1,-1,-1,-1,-1,-1,-1,-1,-1,-1,-1,-1,-1,-1,-1,-1,-1,-1,-1,-1,-1,-1],"loss_changes":[2.7699175E0,1.8990456E0,1.8148843E0,1.3416712E0,1.0056272E0,1.7833062E0,1.1271555E0,1.0042553E0,9.898827E-1,6.7556405E-1,8.83049E-1,8.887937E-1,1.8349981E-1,9.236048E-1,3.7362766E-1,1.268043E0,5.464275E-1,9.669667E-1,3.3220178E-1,5.6010985E-1,6.425218E-1,1.3326428E0,2.1077824E-1,4.7072148E-1,9.4210875E-1,5.266559E-1,0E0,1.4201477E0,0E0,0E0,0E0,0E0,1.5101953E0,9.552796E-1,3.0042958E-1,1.5135708E-1,0E0,5.5122155E-1,2.2958475E-1,0E0,8.803369E-1,0E0,0E0,9.466073E-1,1.8479022E0,3.2537973E-1,9.970162E-1,0E0,2.8152472E-1,1.5745782E0,1.7675818E0,9.2372656E-2,0E0,7.1851367E-1,3.6985308E-1,0E0,0E0,0E0,0E0,0E0,0E0,0E0,0E0,0E0,0E0,0E0,0E0,0E0,0E0,0E0,0E0,0E0,0E0,0E0,0E0,0E0,0E0,0E0,0E0,0E0,0E0,0E0,0E0,0E0,0E0,0E0,0E0,0E0,0E0],"parents":[2147483647,0,0,1,1,2,2,3,3,4,4,5,5,6,6,7,7,8,8,9,9,10,10,11,11,12,12,13,13,14,14,15,15,16,16,17,17,18,18,19,19,20,20,21,21,22,22,23,23,24,24,25,25,27,27,32,32,33,33,34,34,35,35,37,37,38,38,40,40,43,43,44,44,45,45,46,46,48,48,49,49,50,50,51,51,53,53,54,54],"right_children":[2,4,6,8,10,12,14,16,18,20,22,24,26,28,30,32,34,36,38,40,42,44,46,48,50,52,-1,54,-1,-1,-1,-1,56,58,60,62,-1,64,66,-1,68,-1,-1,70,72,74,76,-1,78,80,82,84,-1,86,88,-1,-1,-1,-1,-1,-1,-1,-1,-1,-1,-1,-1,-1,-1,-1,-1,-1,-1,-1,-1,-1,-1,-1,-1,-1,-1,-1,-1,-1,-1,-1,-1,-1,-1],"split_conditions":[1E0,1E0,4E0,3E0,3E0,3E0,3E0,3E0,3E0,3E0,4E0,2E0,1E0,4E0,2E0,4E0,1E0,2E0,4E0,4E0,2E0,3E0,2E0,4E0,3E0,3E0,2.2819956E-1,3E0,2.0924081E-1,6.46033E-2,2.768355E-1,-2.6414862E-1,2E0,4E0,2E0,3E0,-2.3323978E-1,1E0,2E0,-2.1714841E-1,2E0,-8.504544E-2,1.2038135E-1,3E0,3E0,1E0,1E0,-2.1259642E-1,1E0,4E0,2E0,2E0,-5.1763788E-2,3E0,2E0,-2.5622007E-1,-2.1139493E-2,-1.715948E-1,5.404453E-2,-2.6654428E-2,9.6678354E-2,-3.761337E-2,7.466256E-2,-6.2213466E-2,8.118552E-2,1.8396789E-1,1.40381865E-2,-1.8359968E-1,6.2139522E-2,-1.15720905E-1,5.4629464E-2,-3.3605136E-2,2.1528497E-1,5.3857464E-2,2.4302639E-1,1.6241533E-1,-4.5828905E-2,-9.451745E-2,5.2735094E-2,-1.1734603E-1,9.518724E-2,2.0007065E-1,-5.657124E-2,3.2120343E-2,1.7528862E-1,-1.9758172E-1,2.0488331E-2,2.1478997E-1,1.24200685E-2],"split_indices":[1,3,2,5,2,0,7,0,4,0,4,2,3,4,6,4,8,9,6,4,9,7,7,4,7,9,0,5,0,0,0,0,6,2,5,0,0,8,0,0,6,0,0,0,6,8,8,0,3,6,9,2,0,6,9,0,0,0,0,0,0,0,0,0,0,0,0,0,0,0,0,0,0,0,0,0,0,0,0,0,0,0,0,0,0,0,0,0,0],"split_type":[0,0,0,0,0,0,0,0,0,0,0,0,0,0,0,0,0,0,0,0,0,0,0,0,0,0,0,0,0,0,0,0,0,0,0,0,0,0,0,0,0,0,0,0,0,0,0,0,0,0,0,0,0,0,0,0,0,0,0,0,0,0,0,0,0,0,0,0,0,0,0,0,0,0,0,0,0,0,0,0,0,0,0,0,0,0,0,0,0],"sum_hessian":[1.2851724E2,8.352995E1,4.4987297E1,4.286306E1,4.066689E1,3.0172668E1,1.48146305E1,2.8463266E1,1.4399796E1,9.43007E0,3.123682E1,2.4402445E1,5.770222E0,8.723E0,6.091631E0,1.729547E1,1.1167797E1,4.116082E0,1.0283713E1,5.8327336E0,3.5973363E0,2.0816248E1,1.0420573E1,4.609026E0,1.9793419E1,4.0645022E0,1.7057196E0,6.963459E0,1.7595408E0,1.7376903E0,4.3539405E0,5.515424E0,1.17800455E1,5.684144E0,5.483653E0,2.43523E0,1.680852E0,7.695557E0,2.5881562E0,2.104954E0,3.7277794E0,1.5692943E0,2.0280418E0,1.1515819E1,9.300428E0,3.8259764E0,6.594597E0,1.8281885E0,2.7808373E0,1.1748552E1,8.0448675E0,2.7996814E0,1.2648209E0,4.1510196E0,2.8124392E0,2.445693E0,9.3343525E0,3.6302435E0,2.0539005E0,3.313207E0,2.170446E0,1.3249466E0,1.1102833E0,3.6678874E0,4.02767E0,1.286147E0,1.3020092E0,1.0893091E0,2.6384702E0,7.8466473E0,3.6691713E0,5.286231E0,4.014198E0,2.3689656E0,1.4570109E0,3.1090717E0,3.485525E0,1.4061342E0,1.374703E0,7.768462E0,3.9800904E0,4.1438756E0,3.9009917E0,1.1120013E0,1.6876802E0,1.9287146E0,2.222305E0,1.3802027E0,1.4322366E0],"tree_param":{"num_deleted":"0","num_feature":"11","num_nodes":"89","size_leaf_vector":"1"}},{"base_weights":[7.865617E-3,-8.53888E-2,2.1883391E-1,-2.087368E-1,7.082209E-2,9.194551E-2,4.2090055E-1,-6.200899E-1,-1.3805172E-1,-6.902623E-2,3.0334964E-1,1.8849596E-1,-2.3413476E-1,6.6109073E-1,1.3081276E-1,-2.3900549E-1,-3.116396E-1,-2.5105292E-1,1.0906683E-1,-2.687911E-1,1.4626935E-1,1.4333549E-1,5.125254E-1,-3.309427E-2,4.0981713E-1,-1.6325307E-1,6.2848985E-2,4.2162812E-1,2.722807E-1,1.527197E-1,-1.3578366E-1,-2.1579318E-1,5.166568E-2,-2.2951166E-1,-1.21050455E-1,-1.2483555E-2,2.6825753E-1,-4.7093797E-1,5.457049E-2,-1.0626666E-1,4.1557634E-1,-2.1482821E-1,2.9233697E-1,1.923656E-1,2.34036E-1,-4.5721662E-1,1.6129695E-1,-2.4458453E-1,6.352027E-1,-2.6334295E-2,1.8815811E-1,-3.2551143E-1,7.0861295E-2,-9.452072E-2,1.037754E-1,7.110187E-2,-7.62866E-2,-1.3090194E-2,2.0872372E-1,-1.0170016E-2,-2.734197E-1,-4.7734883E-2,1.1601705E-1,6.1443143E-2,-1.9123112E-1,5.9165537E-2,1.895033E-1,1.3573813E-1,-2.593617E-1,3.227548E-4,1.643953E-1,-8.920797E-2,2.0919982E-1,-2.4236191E-2,-2.0898536E-1,9.177488E-2,-9.668132E-2,-2.0780565E-2,-9.3144E-2,1.0325109E-1,2.3850249E-1,-1.6782759E-2,-1.3625075E-1],"categories":[],"categories_nodes":[],"categories_segments":[],"categories_sizes":[],"default_left":[0,0,0,0,0,0,0,0,0,0,0,0,0,0,0,0,0,0,0,0,0,0,0,0,0,0,0,0,0,0,0,0,0,0,0,0,0,0,0,0,0,0,0,0,0,0,0,0,0,0,0,0,0,0,0,0,0,0,0,0,0,0,0,0,0,0,0,0,0,0,0,0,0,0,0,0,0,0,0,0,0,0,0],"id":15,"left_children":[1,3,5,7,9,11,13,15,17,19,21,23,25,27,29,-1,31,33,35,37,39,41,43,45,47,-1,-1,49,-1,-1,51,-1,-1,-1,53,55,57,59,61,63,65,67,69,71,-1,73,75,77,79,-1,-1,81,-1,-1,-1,-1,-1,-1,-1,-1,-1,-1,-1,-1,-1,-1,-1,-1,-1,-1,-1,-1,-1,-1,-1,-1,-1,-1,-1,-1,-1,-1,-1],"loss_changes":[2.4512942E0,1.6808124E0,9.4030344E-1,1.3265791E0,1.2858137E0,8.228383E-1,9.2025924E-1,1.2405586E-1,1.2206684E0,1.1189831E0,4.2168796E-1,9.7663534E-1,9.525443E-1,6.9354534E-2,8.548038E-1,0E0,9.387707E-1,1.8870044E0,2.7629596E-1,8.9990187E-1,9.099066E-1,5.8419096E-1,3.6598337E-1,9.590532E-1,1.6154528E0,0E0,0E0,6.573756E-1,0E0,0E0,4.5514995E-1,0E0,0E0,0E0,2.3589244E0,6.004545E-1,8.5058326E-1,1.5732274E0,4.9028057E-1,1.3476379E0,1.7571974E-1,1.8854839E0,5.4469335E-1,1.2137733E0,0E0,2.7135545E-1,6.6521746E-1,1.613219E-2,8.17709E-2,0E0,0E0,1.12274855E-1,0E0,0E0,0E0,0E0,0E0,0E0,0E0,0E0,0E0,0E0,0E0,0E0,0E0,0E0,0E0,0E0,0E0,0E0,0E0,0E0,0E0,0E0,0E0,0E0,0E0,0E0,0E0,0E0,0E0,0E0,0E0],"parents":[2147483647,0,0,1,1,2,2,3,3,4,4,5,5,6,6,7,7,8,8,9,9,10,10,11,11,12,12,13,13,14,14,16,16,17,17,18,18,19,19,20,20,21,21,22,22,23,23,24,24,27,27,30,30,34,34,35,35,36,36,37,37,38,38,39,39,40,40,41,41,42,42,43,43,45,45,46,46,47,47,48,48,51,51],"right_children":[2,4,6,8,10,12,14,16,18,20,22,24,26,28,30,-1,32,34,36,38,40,42,44,46,48,-1,-1,50,-1,-1,52,-1,-1,-1,54,56,58,60,62,64,66,68,70,72,-1,74,76,78,80,-1,-1,82,-1,-1,-1,-1,-1,-1,-1,-1,-1,-1,-1,-1,-1,-1,-1,-1,-1,-1,-1,-1,-1,-1,-1,-1,-1,-1,-1,-1,-1,-1,-1],"split_conditions":[3E0,3E0,4E0,2E0,1E0,3E0,1E0,3E0,3E0,2E0,4E0,1E0,1E0,3E0,3E0,-2.3900549E-1,3E0,3E0,1E0,4E0,3E0,3E0,3E0,3E0,2E0,-1.6325307E-1,6.2848985E-2,3E0,2.722807E-1,1.527197E-1,4E0,-2.1579318E-1,5.166568E-2,-2.2951166E-1,4E0,3E0,3E0,1E0,4E0,1E0,1E0,2E0,1E0,1E0,2.34036E-1,2E0,1E0,1E0,2E0,-2.6334295E-2,1.8815811E-1,2E0,7.0861295E-2,-9.452072E-2,1.037754E-1,7.110187E-2,-7.62866E-2,-1.3090194E-2,2.0872372E-1,-1.0170016E-2,-2.734197E-1,-4.7734883E-2,1.1601705E-1,6.1443143E-2,-1.9123112E-1,5.9165537E-2,1.895033E-1,1.3573813E-1,-2.593617E-1,3.227548E-4,1.643953E-1,-8.920797E-2,2.0919982E-1,-2.4236191E-2,-2.0898536E-1,9.177488E-2,-9.668132E-2,-2.0780565E-2,-9.3144E-2,1.0325109E-1,2.3850249E-1,-1.6782759E-2,-1.3625075E-1],"split_indices":[5,7,2,2,1,9,8,0,0,0,2,3,8,7,4,0,4,4,3,2,6,4,6,4,7,0,0,6,0,0,4,0,0,0,6,6,6,8,4,10,3,9,3,3,0,9,10,8,0,0,0,9,0,0,0,0,0,0,0,0,0,0,0,0,0,0,0,0,0,0,0,0,0,0,0,0,0,0,0,0,0,0,0],"split_type":[0,0,0,0,0,0,0,0,0,0,0,0,0,0,0,0,0,0,0,0,0,0,0,0,0,0,0,0,0,0,0,0,0,0,0,0,0,0,0,0,0,0,0,0,0,0,0,0,0,0,0,0,0,0,0,0,0,0,0,0,0,0,0,0,0,0,0,0,0,0,0,0,0,0,0,0,0,0,0,0,0,0,0],"sum_hessian":[1.2264757E2,8.546478E1,3.718279E1,4.756781E1,3.7896973E1,2.3733982E1,1.3448805E1,5.835492E0,4.1732315E1,2.410358E1,1.3793393E1,1.863747E1,5.096512E0,6.657511E0,6.791294E0,2.7043343E0,3.1311579E0,2.8626297E1,1.310602E1,1.23738575E1,1.1729723E1,8.769889E0,5.0235033E0,9.73805E0,8.89942E0,2.8665292E0,2.2299826E0,4.751885E0,1.9056264E0,2.4316769E0,4.3596168E0,1.4352697E0,1.695888E0,4.7927155E0,2.3833582E1,7.9541745E0,5.151845E0,7.333191E0,5.0406666E0,6.365778E0,5.363945E0,2.4467368E0,6.3231525E0,3.0696878E0,1.9538157E0,2.635619E0,7.1024313E0,2.258048E0,6.641372E0,1.5309751E0,3.2209098E0,2.9698322E0,1.3897847E0,1.706755E1,6.7660313E0,3.9246469E0,4.0295277E0,3.4978065E0,1.6540387E0,4.221482E0,3.1117089E0,3.3843434E0,1.656323E0,4.4021177E0,1.9636602E0,3.6193855E0,1.7445595E0,1.3568128E0,1.089924E0,3.4251075E0,2.898045E0,1.7670771E0,1.3026108E0,1.544514E0,1.0911049E0,5.7501326E0,1.3522989E0,1.1772208E0,1.0808272E0,3.4719882E0,3.1693838E0,1.4230391E0,1.5467932E0],"tree_param":{"num_deleted":"0","num_feature":"11","num_nodes":"83","size_leaf_vector":"1"}},{"base_weights":[7.973395E-3,-7.839015E-2,1.6922942E-1,-1.8994384E-1,8.1293516E-2,5.1293384E-2,4.0635365E-1,-3.246367E-1,-1.8886236E-3,-2.2445025E-1,1.6978689E-1,-5.9854474E-2,4.6828917E-1,4.8909548E-1,3.1468067E-2,-5.9244806E-1,-1.2737125E-1,-3.150813E-1,8.148623E-2,1.2893462E-1,-5.199161E-1,3.8448505E-2,3.4515008E-1,-3.814567E-1,2.3049429E-2,3.1357646E-2,5.589247E-1,2.2731565E-1,2.1147768E-1,1.03622526E-1,-7.666384E-2,-2.484336E-1,-3.4322083E-1,-3.6042592E-1,1.3740891E-1,-1.53981E-1,-3.6616044E-3,1.5759695E-1,-1.4896512E-1,-8.360022E-2,1.5758863E-1,-5.286447E-2,-2.0283146E-1,-1.09263085E-1,4.3925643E-1,5.7574373E-1,2.1470438E-1,-1.956189E-1,-8.029973E-2,-2.2000675E-1,1.2198654E-1,2.1211426E-1,1.1057505E-2,-1.2839599E-1,1.5123944E-1,-2.3943062E-1,2.3415918E-2,-1.4893872E-1,-3.1309463E-3,-5.9622634E-2,1.3132587E-1,1.2246615E-2,1.0484619E-1,2.9354228E-2,-8.842925E-2,-1.21556334E-1,7.41519E-2,-9.222262E-3,2.1751477E-1,2.1107414E-1,4.690333E-2,1.6324336E-2,1.8491869E-1,-6.834508E-2,3.1351455E-2,-1.4196149E-1,5.857536E-2,8.7455705E-2,-1.9878587E-2,-1.2055507E-1,6.601024E-2],"categories":[],"categories_nodes":[],"categories_segments":[],"categories_sizes":[],"default_left":[0,0,0,0,0,0,0,0,0,0,0,0,0,0,0,0,0,0,0,0,0,0,0,0,0,0,0,0,0,0,0,0,0,0,0,0,0,0,0,0,0,0,0,0,0,0,0,0,0,0,0,0,0,0,0,0,0,0,0,0,0,0,0,0,0,0,0,0,0,0,0,0,0,0,0,0,0,0,0,0,0],"id":16,"left_children":[1,3,5,7,9,11,13,15,17,19,21,23,25,27,29,31,33,35,37,39,41,43,45,47,49,-1,51,53,-1,-1,-1,-1,55,57,59,-1,-1,61,63,-1,-1,-1,-1,65,67,69,71,-1,73,75,77,-1,-1,79,-1,-1,-1,-1,-1,-1,-1,-1,-1,-1,-1,-1,-1,-1,-1,-1,-1,-1,-1,-1,-1,-1,-1,-1,-1,-1,-1],"loss_changes":[1.6835915E0,1.4189452E0,1.1578397E0,1.1819038E0,9.3379825E-1,1.3856845E0,4.1438127E-1,1.3613038E0,5.606907E-1,8.878885E-1,5.911576E-1,6.49071E-1,1.4856124E-1,4.771564E-1,4.1029307E-1,3.7720656E-1,1.0945256E0,2.646416E-1,3.212299E-1,8.541988E-1,1.2137747E-1,1.0029784E0,2.1065402E-1,3.5338587E-1,5.08644E-1,0E0,3.4479058E-1,7.1204317E-1,0E0,0E0,0E0,0E0,1.4384019E0,4.3678832E-1,9.604793E-1,0E0,0E0,2.825751E-1,1.9900452E-1,0E0,0E0,0E0,0E0,1.4278507E0,6.3250935E-1,7.338226E-2,5.261295E-1,0E0,1.1913784E-1,7.3933125E-1,4.9429077E-1,0E0,0E0,4.384782E-1,0E0,0E0,0E0,0E0,0E0,0E0,0E0,0E0,0E0,0E0,0E0,0E0,0E0,0E0,0E0,0E0,0E0,0E0,0E0,0E0,0E0,0E0,0E0,0E0,0E0,0E0,0E0],"parents":[2147483647,0,0,1,1,2,2,3,3,4,4,5,5,6,6,7,7,8,8,9,9,10,10,11,11,12,12,13,13,14,14,15,15,16,16,17,17,18,18,19,19,20,20,21,21,22,22,23,23,24,24,26,26,27,27,32,32,33,33,34,34,37,37,38,38,43,43,44,44,45,45,46,46,48,48,49,49,50,50,53,53],"right_children":[2,4,6,8,10,12,14,16,18,20,22,24,26,28,30,32,34,36,38,40,42,44,46,48,50,-1,52,54,-1,-1,-1,-1,56,58,60,-1,-1,62,64,-1,-1,-1,-1,66,68,70,72,-1,74,76,78,-1,-1,80,-1,-1,-1,-1,-1,-1,-1,-1,-1,-1,-1,-1,-1,-1,-1,-1,-1,-1,-1,-1,-1,-1,-1,-1,-1,-1,-1],"split_conditions":[1E0,4E0,4E0,3E0,3E0,3E0,1E0,1E0,2E0,2E0,1E0,2E0,2E0,3E0,3E0,3E0,4E0,1E0,3E0,3E0,2E0,4E0,2E0,4E0,3E0,3.1357646E-2,3E0,2E0,2.1147768E-1,1.03622526E-1,-7.666384E-2,-2.484336E-1,3E0,4E0,3E0,-1.53981E-1,-3.6616044E-3,4E0,2E0,-8.360022E-2,1.5758863E-1,-5.286447E-2,-2.0283146E-1,3E0,2E0,2E0,4E0,-1.956189E-1,1E0,3E0,2E0,2.1211426E-1,1.1057505E-2,2E0,1.5123944E-1,-2.3943062E-1,2.3415918E-2,-1.4893872E-1,-3.1309463E-3,-5.9622634E-2,1.3132587E-1,1.2246615E-2,1.0484619E-1,2.9354228E-2,-8.842925E-2,-1.21556334E-1,7.41519E-2,-9.222262E-3,2.1751477E-1,2.1107414E-1,4.690333E-2,1.6324336E-2,1.8491869E-1,-6.834508E-2,3.1351455E-2,-1.4196149E-1,5.857536E-2,8.7455705E-2,-1.9878587E-2,-1.2055507E-1,6.601024E-2],"split_indices":[1,4,2,0,2,0,10,3,2,2,3,2,7,6,4,5,2,3,9,7,9,6,6,4,4,0,9,5,0,0,0,0,7,6,7,0,0,2,6,0,0,0,0,7,5,9,2,0,3,5,5,0,0,9,0,0,0,0,0,0,0,0,0,0,0,0,0,0,0,0,0,0,0,0,0,0,0,0,0,0,0],"split_type":[0,0,0,0,0,0,0,0,0,0,0,0,0,0,0,0,0,0,0,0,0,0,0,0,0,0,0,0,0,0,0,0,0,0,0,0,0,0,0,0,0,0,0,0,0,0,0,0,0,0,0,0,0,0,0,0,0,0,0,0,0,0,0,0,0,0,0,0,0,0,0,0,0,0,0,0,0,0,0,0,0],"sum_hessian":[1.1893742E2,7.778966E1,4.1147766E1,4.5684998E1,3.210466E1,2.8292522E1,1.2855245E1,2.6196035E1,1.9488962E1,6.861588E0,2.5243073E1,2.301458E1,5.2779427E0,1.0281368E1,2.573876E0,1.026151E1,1.5934526E1,3.513104E0,1.5975858E1,3.3812034E0,3.4803846E0,1.51304E1,1.0112673E1,3.9787917E0,1.9035788E1,1.4822425E0,3.7956998E0,5.573952E0,4.7074165E0,1.1321068E0,1.441769E0,4.080427E0,6.1810827E0,8.282869E0,7.651657E0,1.7036539E0,1.80945E0,1.2247152E1,3.7287054E0,1.8133548E0,1.5678484E0,1.7523867E0,1.7279978E0,1.1587426E1,3.5429745E0,2.4203923E0,7.6922803E0,1.481968E0,2.4968235E0,5.1529555E0,1.3882832E1,2.6807742E0,1.1149256E0,2.6739988E0,2.8999531E0,2.5419023E0,3.6391804E0,5.6631627E0,2.6197064E0,3.7702274E0,3.8814297E0,8.367714E0,3.8794384E0,1.5068157E0,2.2218897E0,6.2563925E0,5.331033E0,1.6771964E0,1.8657781E0,1.3356752E0,1.0847169E0,6.3098683E0,1.3824117E0,1.259057E0,1.2377664E0,3.1144285E0,2.038527E0,7.015889E0,6.866943E0,1.4122909E0,1.2617079E0],"tree_param":{"num_deleted":"0","num_feature":"11","num_nodes":"81","size_leaf_vector":"1"}},{"base_weights":[6.557916E-3,-7.322443E-2,1.8235123E-1,-1.7261334E-1,5.9848435E-2,6.3118644E-2,3.2199016E-1,-3.2643119E-1,-3.3249162E-2,4.7203008E-4,4.3521237E-1,-6.270189E-2,3.1580037E-1,1.2584525E-2,4.4682816E-1,-5.63801E-1,-1.177517E-1,-2.3700798E-1,2.1937984E-1,-3.0390948E-1,9.567776E-2,1.9648859E-1,1.38429E-1,-2.5575963E-1,3.9385703E-1,1.0006482E-1,2.0396687E-1,-2.599784E-1,1.4100774E-1,2.7067512E-1,2.3460169E-1,-2.3206103E-1,-3.6349067E-1,-3.4255227E-1,2.9117644E-2,-5.6681913E-1,6.843905E-2,9.1793366E-2,5.538454E-1,-5.280142E-1,-4.5804955E-2,2.581368E-1,-4.001688E-2,5.946034E-2,2.3203285E-3,-5.182954E-1,1.0311578E-2,3.148352E-3,2.1953891E-1,-8.001471E-2,1.22029886E-1,-1.5017751E-1,2.483002E-2,-1.18158124E-1,4.6844378E-1,-2.1887457E-1,-2.0995604E-2,-1.814589E-1,6.053494E-2,6.29512E-2,-4.4040576E-2,-2.2274281E-1,-9.8601006E-2,-9.660305E-2,1.4930582E-1,-5.3096917E-2,1.1514708E-1,4.3658283E-2,2.0453E-1,-1.9701298E-1,-5.1731348E-2,-8.7173104E-2,5.5905107E-2,1.4074227E-1,-1.3245434E-1,1.06829025E-1,-5.9043564E-2,-2.2097015E-1,-5.1731367E-2,-6.892007E-2,1.00832805E-1,-1.1376779E-1,1.0828777E-1,3.5948228E-2,-1.00460626E-1,4.9147062E-2,2.109176E-1],"categories":[],"categories_nodes":[],"categories_segments":[],"categories_sizes":[],"default_left":[0,0,0,0,0,0,0,0,0,0,0,0,0,0,0,0,0,0,0,0,0,0,0,0,0,0,0,0,0,0,0,0,0,0,0,0,0,0,0,0,0,0,0,0,0,0,0,0,0,0,0,0,0,0,0,0,0,0,0,0,0,0,0,0,0,0,0,0,0,0,0,0,0,0,0,0,0,0,0,0,0,0,0,0,0,0,0],"id":17,"left_children":[1,3,5,7,9,11,13,15,17,19,21,23,25,27,29,31,33,35,37,39,41,-1,43,45,47,49,-1,51,-1,53,-1,-1,55,57,59,61,63,65,67,69,71,73,75,-1,-1,77,79,81,-1,83,-1,-1,-1,-1,85,-1,-1,-1,-1,-1,-1,-1,-1,-1,-1,-1,-1,-1,-1,-1,-1,-1,-1,-1,-1,-1,-1,-1,-1,-1,-1,-1,-1,-1,-1,-1,-1],"loss_changes":[1.6301496E0,1.0684803E0,5.83596E-1,9.764483E-1,7.78726E-1,6.813955E-1,6.302618E-1,1.0124478E0,1.353138E0,9.325412E-1,2.2056717E-1,1.398765E0,4.8832798E-1,8.405822E-1,4.7918844E-1,1.3581395E-1,4.343741E-1,1.496752E0,4.528963E-1,4.1932684E-1,5.506275E-1,0E0,2.4232522E-2,7.7067786E-1,6.2754047E-1,3.4296042E-1,0E0,3.9228463E-1,0E0,1.3935239E0,0E0,0E0,6.971369E-1,8.585128E-1,3.0728185E-1,5.1578283E-2,1.5691087E0,8.3273274E-1,6.0662985E-2,7.022047E-2,3.1886742E-1,1.8736732E0,9.5329136E-1,0E0,0E0,2.9077733E-1,5.794563E-1,5.769885E-1,0E0,2.6303717E-1,0E0,0E0,0E0,0E0,4.2414224E-1,0E0,0E0,0E0,0E0,0E0,0E0,0E0,0E0,0E0,0E0,0E0,0E0,0E0,0E0,0E0,0E0,0E0,0E0,0E0,0E0,0E0,0E0,0E0,0E0,0E0,0E0,0E0,0E0,0E0,0E0,0E0,0E0],"parents":[2147483647,0,0,1,1,2,2,3,3,4,4,5,5,6,6,7,7,8,8,9,9,10,10,11,11,12,12,13,13,14,14,15,15,16,16,17,17,18,18,19,19,20,20,22,22,23,23,24,24,25,25,27,27,29,29,32,32,33,33,34,34,35,35,36,36,37,37,38,38,39,39,40,40,41,41,42,42,45,45,46,46,47,47,49,49,54,54],"right_children":[2,4,6,8,10,12,14,16,18,20,22,24,26,28,30,32,34,36,38,40,42,-1,44,46,48,50,-1,52,-1,54,-1,-1,56,58,60,62,64,66,68,70,72,74,76,-1,-1,78,80,82,-1,84,-1,-1,-1,-1,86,-1,-1,-1,-1,-1,-1,-1,-1,-1,-1,-1,-1,-1,-1,-1,-1,-1,-1,-1,-1,-1,-1,-1,-1,-1,-1,-1,-1,-1,-1,-1,-1],"split_conditions":[3E0,4E0,1E0,3E0,3E0,4E0,3E0,3E0,3E0,3E0,2E0,3E0,4E0,4E0,1E0,1E0,3E0,1E0,3E0,3E0,2E0,1.9648859E-1,3E0,3E0,3E0,1E0,2.0396687E-1,3E0,1.4100774E-1,2E0,2.3460169E-1,-2.3206103E-1,1E0,3E0,1E0,3E0,1E0,4E0,1E0,4E0,3E0,1E0,2E0,5.946034E-2,2.3203285E-3,1E0,4E0,3E0,2.1953891E-1,1E0,1.22029886E-1,-1.5017751E-1,2.483002E-2,-1.18158124E-1,4E0,-2.1887457E-1,-2.0995604E-2,-1.814589E-1,6.053494E-2,6.29512E-2,-4.4040576E-2,-2.2274281E-1,-9.8601006E-2,-9.660305E-2,1.4930582E-1,-5.3096917E-2,1.1514708E-1,4.3658283E-2,2.0453E-1,-1.9701298E-1,-5.1731348E-2,-8.7173104E-2,5.5905107E-2,1.4074227E-1,-1.3245434E-1,1.06829025E-1,-5.9043564E-2,-2.2097015E-1,-5.1731367E-2,-6.892007E-2,1.00832805E-1,-1.1376779E-1,1.0828777E-1,3.5948228E-2,-1.00460626E-1,4.9147062E-2,2.109176E-1],"split_indices":[5,4,3,6,0,4,2,0,7,2,9,0,2,4,1,1,2,3,0,7,9,0,6,7,6,1,0,7,0,6,0,0,3,7,8,0,1,2,8,6,6,10,7,0,0,1,2,4,0,10,0,0,0,0,2,0,0,0,0,0,0,0,0,0,0,0,0,0,0,0,0,0,0,0,0,0,0,0,0,0,0,0,0,0,0,0,0],"split_type":[0,0,0,0,0,0,0,0,0,0,0,0,0,0,0,0,0,0,0,0,0,0,0,0,0,0,0,0,0,0,0,0,0,0,0,0,0,0,0,0,0,0,0,0,0,0,0,0,0,0,0,0,0,0,0,0,0,0,0,0,0,0,0,0,0,0,0,0,0,0,0,0,0,0,0,0,0,0,0,0,0,0,0,0,0,0,0],"sum_hessian":[1.1427798E2,7.900546E1,3.5272514E1,4.5056625E1,3.3948837E1,1.9809725E1,1.5462789E1,2.0779625E1,2.4276999E1,3.0176647E1,3.7721922E0,1.3726564E1,6.083161E0,4.761765E0,1.0701024E1,8.925381E0,1.1854244E1,1.3472523E1,1.0804476E1,6.6675954E0,2.3509052E1,1.473953E0,2.2982392E0,9.956309E0,3.7702544E0,4.620305E0,1.4628558E0,3.2543519E0,1.507413E0,8.199383E0,2.5016413E0,2.9621542E0,5.963227E0,4.157835E0,7.696409E0,6.066462E0,7.4060607E0,8.743569E0,2.0609066E0,3.0091228E0,3.6584725E0,1.0288688E1,1.3220364E1,1.2225803E0,1.0756589E0,4.534301E0,5.422009E0,2.2167149E0,1.5535395E0,3.3767567E0,1.2435483E0,1.6414723E0,1.6128796E0,1.6531165E0,6.546266E0,1.9923726E0,3.970854E0,2.7307255E0,1.4271096E0,3.7013066E0,3.9951024E0,2.2725525E0,3.7939093E0,4.0091267E0,3.3969338E0,4.7581377E0,3.985432E0,1.0015731E0,1.0593334E0,1.5876188E0,1.4215041E0,1.6583493E0,2.0001233E0,8.157866E0,2.1308227E0,3.3885977E0,9.831765E0,2.0873098E0,2.446991E0,3.291625E0,2.130384E0,1.042644E0,1.1740708E0,2.1896086E0,1.1871481E0,3.5870988E0,2.959167E0],"tree_param":{"num_deleted":"0","num_feature":"11","num_nodes":"87","size_leaf_vector":"1"}},{"base_weights":[5.653657E-3,-9.647851E-2,1.1626252E-1,-1.8738525E-1,6.927256E-2,-1.1449461E-2,3.1648585E-1,-2.8105637E-1,-5.5134937E-4,2.6638383E-1,-1.5766245E-1,2.1056953E-1,-1.4829671E-1,1.5145412E-1,4.386564E-1,-4.2129844E-1,-7.6359175E-2,-2.1893129E-1,2.1748783E-1,-1.376279E-1,3.6769575E-1,-4.151744E-1,2.9060897E-1,-3.2554117E-1,6.8092346E-1,-3.2703185E-1,2.709814E-2,-3.0354962E-2,4.391337E-1,-4.9564946E-2,5.658481E-1,-2.3267944E-1,-2.6067474E-1,-2.3271114E-1,1.0323949E-1,-5.305256E-1,1.8894905E-1,-2.0978324E-1,6.1704445E-1,-1.4347832E-1,7.721686E-2,5.603268E-2,6.733337E-1,3.677082E-2,-2.0418257E-1,1.2772215E-2,1.1187354E-1,-5.5295336E-1,9.393746E-2,2.27324E-1,6.8836525E-2,-7.380796E-2,-5.263163E-1,-1.9784738E-1,2.8690913E-1,-4.814956E-1,1.7497006E-1,-1.550492E-2,2.0052734E-1,6.619634E-1,4.1601274E-2,-1.5801308E-1,8.926956E-3,-1.2893742E-1,4.3075047E-2,8.656542E-2,-6.349168E-2,-2.0673598E-1,-5.6050118E-2,1.5791996E-1,-6.557698E-2,-1.2702203E-1,5.7792872E-2,2.1794786E-1,5.287676E-2,-2.2977136E-2,6.912401E-2,7.534132E-2,2.3125844E-1,6.154088E-2,-4.1368917E-2,-2.716139E-1,4.3582447E-2,4.0650472E-2,-7.458628E-2,-2.1949449E-1,-1.4574091E-2,-1.11875266E-1,7.316451E-2,1.4329813E-1,-2.284053E-2,-2.2861008E-1,2.0647772E-2,3.6704566E-2,2.5164726E-1],"categories":[],"categories_nodes":[],"categories_segments":[],"categories_sizes":[],"default_left":[0,0,0,0,0,0,0,0,0,0,0,0,0,0,0,0,0,0,0,0,0,0,0,0,0,0,0,0,0,0,0,0,0,0,0,0,0,0,0,0,0,0,0,0,0,0,0,0,0,0,0,0,0,0,0,0,0,0,0,0,0,0,0,0,0,0,0,0,0,0,0,0,0,0,0,0,0,0,0,0,0,0,0,0,0,0,0,0,0,0,0,0,0,0,0],"id":18,"left_children":[1,3,5,7,9,11,13,15,17,19,21,23,25,27,29,31,33,35,37,39,41,43,45,47,49,51,53,55,57,-1,59,-1,61,63,65,67,69,71,73,-1,-1,75,77,79,-1,-1,-1,81,-1,-1,-1,83,85,87,89,91,-1,-1,-1,93,-1,-1,-1,-1,-1,-1,-1,-1,-1,-1,-1,-1,-1,-1,-1,-1,-1,-1,-1,-1,-1,-1,-1,-1,-1,-1,-1,-1,-1,-1,-1,-1,-1,-1,-1],"loss_changes":[1.2613624E0,8.881756E-1,1.3737392E0,6.610396E-1,9.9490935E-1,1.0544965E0,3.549826E-1,6.901661E-1,6.9605523E-1,5.324636E-1,1.3362472E0,3.5643919E0,6.804596E-1,5.582468E-1,9.754791E-1,6.3498807E-1,3.4559232E-1,1.0282995E0,1.3784459E0,5.385926E-1,8.8478017E-1,8.7676847E-1,7.456589E-2,1.171183E0,8.225393E-2,5.004598E-1,7.42659E-1,2.3069134E0,4.95871E-1,0E0,3.069327E-1,0E0,9.1411734E-1,5.385096E-1,4.12473E-1,1.1120927E-1,6.5138996E-1,4.496562E-1,6.6585064E-2,0E0,0E0,1.5376708E-1,4.000187E-3,1.3344505E-1,0E0,0E0,0E0,1.4674263E0,0E0,0E0,0E0,2.4845998E-1,5.351075E-1,6.231533E-1,4.417713E-1,7.882186E-1,0E0,0E0,0E0,6.2866116E-1,0E0,0E0,0E0,0E0,0E0,0E0,0E0,0E0,0E0,0E0,0E0,0E0,0E0,0E0,0E0,0E0,0E0,0E0,0E0,0E0,0E0,0E0,0E0,0E0,0E0,0E0,0E0,0E0,0E0,0E0,0E0,0E0,0E0,0E0,0E0],"parents":[2147483647,0,0,1,1,2,2,3,3,4,4,5,5,6,6,7,7,8,8,9,9,10,10,11,11,12,12,13,13,14,14,15,15,16,16,17,17,18,18,19,19,20,20,21,21,22,22,23,23,24,24,25,25,26,26,27,27,28,28,30,30,32,32,33,33,34,34,35,35,36,36,37,37,38,38,41,41,42,42,43,43,47,47,51,51,52,52,53,53,54,54,55,55,59,59],"right_children":[2,4,6,8,10,12,14,16,18,20,22,24,26,28,30,32,34,36,38,40,42,44,46,48,50,52,54,56,58,-1,60,-1,62,64,66,68,70,72,74,-1,-1,76,78,80,-1,-1,-1,82,-1,-1,-1,84,86,88,90,92,-1,-1,-1,94,-1,-1,-1,-1,-1,-1,-1,-1,-1,-1,-1,-1,-1,-1,-1,-1,-1,-1,-1,-1,-1,-1,-1,-1,-1,-1,-1,-1,-1,-1,-1,-1,-1,-1,-1],"split_conditions":[1E0,1E0,3E0,3E0,1E0,2E0,2E0,3E0,3E0,2E0,4E0,2E0,3E0,3E0,2E0,4E0,1E0,4E0,3E0,2E0,3E0,3E0,3E0,4E0,1E0,1E0,1E0,1E0,3E0,-4.9564946E-2,1E0,-2.3267944E-1,3E0,4E0,4E0,3E0,3E0,3E0,2E0,-1.4347832E-1,7.721686E-2,3E0,3E0,2E0,-2.0418257E-1,1.2772215E-2,1.1187354E-1,4E0,9.393746E-2,2.27324E-1,6.8836525E-2,2E0,3E0,4E0,2E0,3E0,1.7497006E-1,-1.550492E-2,2.0052734E-1,2E0,4.1601274E-2,-1.5801308E-1,8.926956E-3,-1.2893742E-1,4.3075047E-2,8.656542E-2,-6.349168E-2,-2.0673598E-1,-5.6050118E-2,1.5791996E-1,-6.557698E-2,-1.2702203E-1,5.7792872E-2,2.1794786E-1,5.287676E-2,-2.2977136E-2,6.912401E-2,7.534132E-2,2.3125844E-1,6.154088E-2,-4.1368917E-2,-2.716139E-1,4.3582447E-2,4.0650472E-2,-7.458628E-2,-2.1949449E-1,-1.4574091E-2,-1.11875266E-1,7.316451E-2,1.4329813E-1,-2.284053E-2,-2.2861008E-1,2.0647772E-2,3.6704566E-2,2.5164726E-1],"split_indices":[3,1,7,5,8,7,5,0,6,6,4,9,6,6,2,4,8,4,7,5,7,4,2,2,10,8,8,1,4,0,10,0,7,2,2,0,7,0,0,0,0,5,2,5,0,0,0,4,0,0,0,6,0,2,0,0,0,0,0,6,0,0,0,0,0,0,0,0,0,0,0,0,0,0,0,0,0,0,0,0,0,0,0,0,0,0,0,0,0,0,0,0,0,0,0],"split_type":[0,0,0,0,0,0,0,0,0,0,0,0,0,0,0,0,0,0,0,0,0,0,0,0,0,0,0,0,0,0,0,0,0,0,0,0,0,0,0,0,0,0,0,0,0,0,0,0,0,0,0,0,0,0,0,0,0,0,0,0,0,0,0,0,0,0,0,0,0,0,0,0,0,0,0,0,0,0,0,0,0,0,0,0,0,0,0,0,0,0,0,0,0,0,0],"sum_hessian":[1.0966445E2,5.7083443E1,5.258101E1,3.6780518E1,2.0302925E1,3.2679367E1,1.990164E1,2.4162224E1,1.2618295E1,1.0772399E1,9.530526E0,1.2256264E1,2.0423103E1,9.418513E0,1.0483127E1,1.3710641E1,1.0451582E1,6.302177E0,6.3161182E0,2.0878823E0,8.684516E0,6.100115E0,3.430411E0,5.8716364E0,6.3846273E0,9.6870365E0,1.0736068E1,6.3192973E0,3.0992155E0,1.7718571E0,8.711269E0,3.082555E0,1.0628086E1,5.429303E0,5.0222793E0,3.402328E0,2.899849E0,3.281724E0,3.034394E0,1.00796E0,1.0799223E0,4.885766E0,3.7987502E0,2.5758226E0,3.5242922E0,1.2327061E0,2.197705E0,4.4288464E0,1.4427902E0,4.8764343E0,1.5081931E0,4.8696737E0,4.8173623E0,5.8819466E0,4.8541207E0,3.7657852E0,2.5535123E0,1.2334675E0,1.865748E0,6.6625633E0,2.0487063E0,5.122408E0,5.5056787E0,3.469843E0,1.95946E0,3.214245E0,1.808034E0,1.6403488E0,1.7619792E0,1.4267855E0,1.4730636E0,2.1096854E0,1.1720387E0,1.9115802E0,1.1228138E0,3.0936863E0,1.7920798E0,1.3837144E0,2.4150357E0,1.2227486E0,1.353074E0,2.7460923E0,1.6827542E0,2.3185143E0,2.5511596E0,2.9975278E0,1.8198346E0,4.3239975E0,1.5579491E0,2.9751856E0,1.8789352E0,2.2394645E0,1.5263206E0,2.0622551E0,4.600308E0],"tree_param":{"num_deleted":"0","num_feature":"11","num_nodes":"95","size_leaf_vector":"1"}},{"base_weights":[6.183425E-3,-5.824956E-2,1.4899574E-1,-1.2839125E-1,1.0253765E-1,5.0811294E-2,3.2234573E-1,-4.8541665E-1,-4.681512E-2,3.20536E-2,3.947003E-1,1.2796704E-1,-2.0114401E-1,6.21758E-2,5.281263E-1,-2.2395073E-1,-2.8355289E-1,-1.9690785E-1,8.682022E-2,-8.8764116E-2,2.062209E-1,1.775005E-1,1.3711737E-1,-5.0818905E-2,3.0471063E-1,-4.4817853E-1,4.6962146E-2,-8.9195676E-2,1.1595442E-1,1.9642374E-1,3.7896242E-3,-6.2294647E-2,-5.439572E-1,-4.5378238E-1,1.9782187E-2,-2.1049136E-2,2.9451656E-1,-3.4372923E-1,-1.5976598E-3,-6.4206272E-3,1.8022361E-1,5.3479835E-2,7.743307E-3,-4.3645516E-1,1.23190805E-1,-5.863383E-2,4.8120892E-1,-1.649268E-1,-4.544077E-2,1.00221224E-1,-3.0702206E-1,-1.3423634E-1,7.745534E-2,-1.9443285E-1,-5.2871004E-2,-2.3564191E-1,-6.0109995E-2,-8.42586E-2,7.3123276E-2,3.320657E-2,-3.9131828E-2,-6.381118E-2,1.3067566E-1,-1.3060483E-1,-2.5934799E-2,5.735333E-2,-6.0327847E-2,-7.440718E-2,1.3203786E-1,-7.1290475E-3,-1.8456347E-1,7.577397E-2,-8.181119E-2,5.8357105E-2,2.0164368E-1,1.0525549E-2,-1.4237198E-1],"categories":[],"categories_nodes":[],"categories_segments":[],"categories_sizes":[],"default_left":[0,0,0,0,0,0,0,0,0,0,0,0,0,0,0,0,0,0,0,0,0,0,0,0,0,0,0,0,0,0,0,0,0,0,0,0,0,0,0,0,0,0,0,0,0,0,0,0,0,0,0,0,0,0,0,0,0,0,0,0,0,0,0,0,0,0,0,0,0,0,0,0,0,0,0,0,0],"id":19,"left_children":[1,3,5,7,9,11,13,15,17,19,21,23,25,27,29,-1,31,33,35,37,39,-1,41,43,45,47,-1,49,-1,-1,-1,51,53,55,57,59,61,63,65,67,-1,-1,-1,69,71,-1,73,-1,-1,-1,75,-1,-1,-1,-1,-1,-1,-1,-1,-1,-1,-1,-1,-1,-1,-1,-1,-1,-1,-1,-1,-1,-1,-1,-1,-1,-1],"loss_changes":[9.9612427E-1,8.5523814E-1,5.5624926E-1,1.5043175E0,4.6581763E-1,4.663561E-1,6.0845137E-1,2.9665446E-1,8.953435E-1,4.35099E-1,1.4350522E-1,5.8310866E-1,5.740331E-1,3.498387E-1,4.1956878E-1,0E0,3.724208E-1,1.1739385E0,5.4069173E-1,2.748965E-1,7.096778E-1,0E0,1.0147702E-2,7.105224E-1,9.040897E-1,2.6188433E-2,0E0,5.812621E-1,0E0,0E0,0E0,7.25526E-1,4.8910975E-3,6.510961E-1,8.97379E-1,2.5416583E-1,6.809372E-1,3.668621E-2,4.3228546E-1,8.057135E-1,0E0,0E0,0E0,2.2611052E-1,4.5428547E-1,0E0,2.5633514E-1,0E0,0E0,0E0,2.4300852E-1,0E0,0E0,0E0,0E0,0E0,0E0,0E0,0E0,0E0,0E0,0E0,0E0,0E0,0E0,0E0,0E0,0E0,0E0,0E0,0E0,0E0,0E0,0E0,0E0,0E0,0E0],"parents":[2147483647,0,0,1,1,2,2,3,3,4,4,5,5,6,6,7,7,8,8,9,9,10,10,11,11,12,12,13,13,14,14,16,16,17,17,18,18,19,19,20,20,22,22,23,23,24,24,25,25,27,27,31,31,32,32,33,33,34,34,35,35,36,36,37,37,38,38,39,39,43,43,44,44,46,46,50,50],"right_children":[2,4,6,8,10,12,14,16,18,20,22,24,26,28,30,-1,32,34,36,38,40,-1,42,44,46,48,-1,50,-1,-1,-1,52,54,56,58,60,62,64,66,68,-1,-1,-1,70,72,-1,74,-1,-1,-1,76,-1,-1,-1,-1,-1,-1,